306 50
the -2.375627 0.371284 -0.192718 0.026302 -0.213078 -0.193879 0.162283 0.168688 0.271605 -0.736085 0.245861 0.005252 0.183128 -0.460154 0.390093 -0.070534 0.262076 -0.026145 0.033349 0.021400 -0.003281 0.183404 0.695445 -0.132646 0.117679 -0.005832 0.076867 0.023954 -0.223459 -0.207548 -0.062830 0.143221 0.133807 -0.000823 0.082584 0.026918 0.201153 -0.318975 0.124182 0.258026 -0.292559 0.143812 -0.007334 0.045052 -0.207105 0.086309 -0.118367 -0.272132 -0.124086 0.296666 
and -1.621287 0.330669 -0.070324 -0.040272 -0.407478 -0.472311 0.206999 0.194223 0.433302 -0.151918 0.152935 0.088771 0.174866 -0.134527 0.166205 -0.000897 0.203550 0.091129 0.069016 0.129530 -0.066934 0.010048 0.422641 -0.038291 0.125652 -0.028227 0.211803 0.088996 -0.142554 0.050156 -0.156501 0.154835 0.068962 0.275291 -0.356101 0.382979 0.051098 -0.327676 -0.002492 0.188695 -0.142534 -0.266721 0.005264 0.099269 0.145523 0.099869 -0.033771 -0.011504 -0.160717 -0.060401 
to -1.384021 0.570482 -0.355540 0.222485 0.184058 -0.244183 0.150162 -0.022318 0.164827 -0.213956 0.161020 0.056458 0.217115 -0.179699 0.218239 -0.166138 0.230878 -0.013025 0.138367 -0.004630 0.024952 -0.021942 0.467931 -0.106829 0.063283 0.048198 0.138422 0.058150 -0.081017 0.399735 -0.125623 -0.077226 -0.032887 0.062005 0.337627 -0.250324 -0.011531 -0.062116 0.235165 0.125802 -0.085820 -0.117283 0.032321 0.054691 0.025251 0.057014 -0.065959 0.046567 -0.075934 -0.136872 
of -1.774921 0.102513 0.252947 0.262889 -0.002355 -0.120816 -0.096484 -0.021792 0.272410 -0.189995 0.110476 0.121555 0.149046 -0.118392 0.075666 -0.152562 0.296889 0.070322 0.081748 -0.108736 -0.153314 0.024436 0.489228 -0.135782 0.073981 -0.017452 0.032948 0.075658 -0.158292 -0.355001 -0.002358 0.024801 -0.039663 0.115696 -0.224734 -0.305324 0.006916 0.085219 -0.283850 0.063509 -0.237894 -0.104780 0.003132 -0.075968 -0.081625 0.049150 -0.079272 -0.038934 -0.090639 -0.094187 
a -1.007119 0.426209 -0.033593 0.046740 -0.406500 0.008847 0.190493 -0.063126 -0.087527 -0.049775 0.095599 0.033316 0.087558 -0.062300 0.301995 -0.064861 0.395593 0.052794 -0.034296 -0.101811 -0.130935 0.020699 0.317933 -0.063669 -0.013435 0.010182 -0.032145 -0.012483 -0.032174 0.461530 0.079993 0.115477 -0.046326 0.173235 -0.314896 -0.023723 0.062261 0.214133 -0.230149 0.088579 -0.039591 0.118717 0.025153 -0.026640 -0.201658 0.001587 -0.049476 -0.076047 -0.030235 -0.050795 
in -1.034852 0.068232 -0.204025 -0.226441 -0.007755 0.038860 -0.081038 -0.051863 -0.007958 -0.126742 0.178172 -0.108016 0.025301 -0.029849 0.062887 0.145572 0.288201 -0.170240 0.310967 -0.020508 0.044712 -0.011114 0.356179 -0.064757 -0.014314 -0.007564 0.169989 0.172172 -0.122564 -0.180523 -0.129938 0.195533 0.088790 0.080536 0.289264 0.350980 0.026796 0.349984 0.023707 0.051391 -0.036661 0.020552 0.049544 0.025541 0.154083 -0.026970 -0.045667 -0.074265 -0.015302 -0.086592 
has -0.798537 -0.169055 -0.279609 0.327772 -0.258529 -0.084000 0.028662 0.032289 0.144516 -0.057350 -0.121357 0.096726 0.069579 -0.100646 0.297241 -0.149537 0.193623 -0.103245 0.167812 -0.006580 0.053025 -0.014393 0.262072 -0.104375 -0.007091 0.002347 0.114122 0.010945 0.002140 -0.195563 -0.048960 0.015793 0.136045 -0.013386 -0.283839 -0.061596 0.001200 0.239744 0.468969 0.065280 -0.106320 0.160308 -0.024240 0.015722 -0.007160 0.051581 -0.020706 0.263133 -0.115176 -0.040355 
it -0.973219 -0.143806 -0.423663 0.204409 -0.167232 -0.117683 0.020478 -0.085120 0.035241 -0.023017 0.170503 -0.116433 0.183584 0.036442 -0.051963 0.049405 0.061308 0.074123 -0.098208 0.019904 -0.074550 0.201495 0.221035 -0.119895 0.090257 -0.012767 0.112602 -0.109512 -0.069178 -0.112435 0.097578 0.003878 -0.072403 0.073185 0.314690 0.210156 0.027674 -0.049119 -0.316657 0.083100 -0.063087 -0.048071 -0.009748 0.032019 -0.256938 0.085425 -0.001719 0.387586 -0.043783 -0.049221 
like -0.256470 0.354940 -0.017917 0.199800 -0.184162 0.115386 -0.391556 0.055024 0.211055 0.079839 0.232849 -0.167415 0.094292 -0.150687 0.122344 0.057422 -0.045334 -0.073195 0.011669 0.009739 0.054541 0.083052 0.105879 -0.064839 0.052083 0.064429 0.045850 -0.082308 0.027254 0.254138 0.029395 0.024691 0.161781 0.083199 -0.075083 0.053208 0.040506 0.053339 -0.132381 -0.028734 -0.109416 0.230054 -0.074602 0.023411 0.331838 -0.000677 -0.042215 0.292370 -0.047953 0.242324 
is -0.805301 0.076211 -0.281271 -0.018143 0.034570 -0.209366 0.055466 -0.070216 0.121636 0.045312 0.167576 -0.000611 0.125043 0.085774 -0.074277 -0.142006 -0.110371 0.132597 -0.149307 0.021282 0.032788 -0.027101 0.029576 -0.052275 -0.030150 0.018670 -0.290357 0.029243 0.285607 0.047645 0.009540 0.074933 0.156273 0.164682 -0.094045 0.075069 -0.037340 0.055310 0.189785 0.085575 -0.061960 -0.469775 -0.056357 -0.052632 -0.206614 0.142135 -0.051215 0.103205 0.174237 0.194860 
as -0.610967 0.024353 -0.125296 -0.278177 -0.004021 -0.066619 -0.032427 -0.012326 0.125782 0.000478 0.152336 0.014649 -0.135580 0.077328 0.073474 -0.081683 -0.043818 -0.110323 -0.004943 0.037811 0.011993 0.022302 0.017890 -0.146174 -0.009779 -0.048005 -0.298406 0.029118 0.294869 -0.028865 0.007739 0.008628 0.228415 -0.030029 -0.005007 -0.292018 -0.075987 -0.339837 -0.037354 0.027571 -0.030972 0.354473 0.206397 0.037952 0.038949 -0.105287 0.030751 0.026749 -0.263136 -0.175721 
own -0.580932 0.022312 -0.009986 -0.252808 0.004215 -0.113385 -0.032205 -0.004976 0.214245 0.135677 0.203178 0.188229 -0.285668 0.201229 0.103983 -0.278312 0.006440 -0.082001 0.061182 -0.062530 0.114490 0.207686 -0.060016 0.009899 0.062515 -0.074744 0.140994 0.024911 -0.183116 0.133256 -0.028021 0.004275 0.151222 0.093166 -0.072947 0.111455 -0.072090 0.059449 0.075169 0.192671 -0.104756 -0.270886 -0.151149 -0.067725 -0.175376 -0.185414 -0.078094 -0.072001 0.029802 0.329160 
with -0.559745 0.073626 0.170904 -0.003638 -0.082462 0.010210 0.151924 0.166433 -0.135411 0.038375 0.117388 0.006656 0.213133 0.043032 -0.016840 -0.009536 0.198388 0.195307 0.157351 0.225325 0.300141 0.020341 0.108814 -0.217050 -0.112278 0.035194 -0.023123 -0.151547 -0.114322 -0.136852 0.048771 -0.157861 0.154496 -0.048252 -0.017310 -0.236964 0.176613 0.082636 -0.170448 0.089805 -0.064924 -0.347763 0.112684 0.022456 0.304570 0.064619 -0.011234 0.031745 -0.058471 0.210957 
said -0.367475 0.107584 0.157472 0.061780 -0.110394 -0.044442 0.305042 -0.621592 0.234730 -0.151909 0.009433 -0.172783 0.095529 -0.062683 0.079443 0.055268 -0.040545 -0.081020 0.101697 0.040814 0.123742 0.073141 0.094686 -0.030001 0.015271 0.022918 0.090762 0.089737 0.031860 -0.079731 0.175165 -0.066201 0.117000 -0.071368 0.107011 -0.064348 0.027894 -0.141175 0.099168 0.092241 0.032433 -0.115435 -0.049437 -0.012478 0.217998 0.009276 0.005869 -0.369309 0.000215 -0.003262 
at -0.747962 0.154438 0.038284 0.247587 0.328960 -0.140787 0.169784 0.171135 0.029589 0.039311 -0.130809 -0.115524 -0.138180 0.130435 0.380979 0.429437 0.075245 -0.038276 -0.125361 0.148018 0.068446 0.157705 0.164304 -0.013414 0.042244 -0.010348 0.028608 -0.045594 -0.031541 0.077076 0.094330 0.120986 0.124143 0.014240 0.083394 -0.186552 -0.058161 0.004692 -0.041419 0.050435 -0.012458 -0.214322 -0.035628 0.072457 0.184530 0.009173 0.046858 -0.135217 -0.034332 -0.095200 
over -0.501999 0.082029 0.156479 0.126937 -0.043785 0.004081 -0.237397 0.073321 0.255180 -0.028246 0.149915 0.029983 0.056004 -0.169593 -0.032200 -0.018950 -0.032040 0.098491 -0.011549 -0.008111 -0.158640 -0.101399 0.015738 -0.177172 0.127195 0.289558 0.031634 0.047860 -0.106532 -0.126682 0.064104 0.287286 0.038978 -0.109050 0.028014 -0.117521 -0.168128 0.051944 0.026307 0.249646 0.368407 -0.093426 0.019284 0.257898 -0.226986 -0.022970 0.149477 -0.192503 0.123137 -0.140687 
are -0.572618 0.106564 0.112428 -0.046692 -0.202978 -0.072338 0.298952 0.247464 -0.128579 0.041469 0.075512 -0.269642 0.166407 -0.156384 0.002392 -0.180180 0.042830 -0.024319 0.047439 0.136970 0.123180 0.000699 0.189060 -0.041566 -0.045493 0.078081 0.067934 -0.152943 -0.030454 0.025047 0.016475 0.134054 -0.070665 -0.084327 -0.151945 0.306527 -0.394141 -0.302300 0.102820 -0.102592 -0.159876 0.108521 -0.062879 -0.039145 -0.232370 -0.008898 -0.063592 -0.114119 -0.046380 -0.020590 
i -0.448417 0.389336 -0.027054 0.150683 -0.345018 0.063085 -0.247262 0.051822 0.118418 0.035623 -0.017048 -0.069672 0.006113 0.020940 -0.005010 0.092403 -0.035602 -0.083979 -0.008861 0.116173 0.025671 0.112825 0.051579 0.043793 -0.107434 -0.366613 -0.038245 0.097085 -0.045978 -0.066930 -0.043892 -0.011192 -0.019285 -0.018260 -0.031330 0.088576 0.016992 -0.141916 0.081274 0.000034 0.026520 -0.190013 0.136026 -0.203139 0.030625 -0.149632 -0.032305 -0.025014 0.155488 -0.472008 
been -0.297524 -0.252542 -0.259120 0.229797 -0.167134 -0.005017 0.018892 0.083090 0.055053 -0.185401 -0.122664 0.029175 0.023220 -0.166852 0.205784 -0.094908 -0.009204 -0.090581 0.054176 0.068276 0.207580 0.168478 -0.102442 -0.235624 -0.082772 0.046835 -0.174693 0.195430 -0.222985 0.069853 0.114652 -0.083678 -0.015398 0.375211 -0.169391 -0.136929 -0.104193 0.083418 0.229594 0.002115 0.026026 0.042658 0.006893 -0.005889 0.170565 0.047115 0.079540 -0.259233 -0.048912 -0.009430 
but -0.490648 0.349703 -0.067360 0.114676 -0.218512 0.044469 -0.112818 -0.006035 -0.061534 -0.078142 -0.285630 0.074684 -0.115282 0.105746 -0.252439 0.021131 -0.107864 -0.083049 0.043476 0.057933 0.030481 0.087038 0.141004 -0.026333 -0.141284 -0.291493 -0.065971 0.140340 -0.158145 0.170310 0.016071 -0.017672 -0.077709 -0.190860 -0.006944 -0.044691 -0.133286 0.035425 -0.059502 0.173636 -0.047493 0.140950 0.042463 0.115976 0.065792 0.055989 -0.078440 0.030627 -0.032936 0.463384 
former -0.589959 -0.013847 0.194107 0.258943 0.229278 -0.073718 0.080464 0.149647 0.046301 0.132513 -0.120752 -0.192868 -0.090842 0.068008 0.089580 0.064182 -0.020425 -0.180857 -0.027008 -0.196586 -0.199816 0.058135 -0.073290 0.017873 0.103138 -0.107390 -0.047999 0.138830 -0.016554 -0.017870 -0.090504 0.030244 0.011164 0.197317 -0.062501 0.206998 0.390090 -0.023713 0.097346 0.141467 0.006858 0.153237 0.059701 0.013571 -0.177301 0.136804 -0.167033 0.182550 -0.275710 0.101912 
local -0.512650 0.268182 -0.052593 0.044153 -0.151780 0.035614 0.078111 -0.036105 -0.214571 -0.188976 -0.290134 0.185973 -0.206818 0.018575 -0.247344 -0.006576 -0.027061 -0.025203 0.056244 -0.056558 -0.062316 0.010999 0.135885 -0.104536 0.311314 0.316398 0.116373 -0.191481 0.057687 0.049069 0.053065 -0.002459 0.219220 0.256366 0.096358 -0.010411 0.041852 -0.112903 0.106072 -0.058717 -0.045196 -0.107347 -0.030024 -0.047974 0.203789 0.010304 0.052386 0.140804 -0.014541 0.197741 
his -0.370600 -0.099969 0.095758 0.234697 0.005128 -0.089472 0.067266 0.043118 0.132150 0.128854 -0.165803 0.002146 -0.066223 0.072511 0.128769 0.050152 0.038176 -0.078609 0.049632 -0.088487 -0.116011 -0.046486 -0.040874 -0.015761 0.031773 -0.104802 -0.032976 -0.085867 0.018420 0.209268 -0.266877 0.169988 -0.063490 0.240036 0.065399 0.022580 0.213583 -0.096211 -0.127171 0.084751 -0.033976 -0.149364 0.064831 0.055314 0.227438 0.171494 -0.150442 -0.455757 -0.335710 -0.032480 
you -0.217055 0.130138 -0.036165 0.014577 -0.099607 -0.096936 -0.032071 0.185529 0.279473 -0.403105 -0.051509 -0.193135 0.119035 0.349684 0.005602 -0.080338 0.164437 -0.005252 0.015840 0.000000 -0.006672 0.010148 0.115159 -0.008348 -0.003506 -0.043300 0.033671 0.045771 -0.017553 0.062547 -0.079412 0.001572 -0.028091 -0.006606 0.104197 -0.027191 0.075202 -0.087268 -0.025753 0.100221 -0.088727 0.042059 0.075956 -0.257127 -0.004642 0.203888 0.530609 -0.022746 0.019744 0.193112 
having -0.198262 0.112909 -0.135400 0.019285 -0.025021 0.073814 0.007975 -0.083950 -0.129265 0.022627 0.165784 -0.084557 0.036092 -0.013304 0.066034 0.077910 0.203876 -0.009599 0.049520 -0.098248 -0.066586 -0.266660 -0.020768 0.394738 0.112522 0.120547 -0.220317 0.036108 -0.310935 -0.155741 0.094032 -0.031627 0.041454 0.090696 0.018400 0.195056 -0.123576 0.021786 -0.101559 0.317106 -0.272740 0.196693 -0.030275 0.011463 0.289343 0.016367 0.105954 -0.047439 -0.151636 0.070660 
don't -0.309104 0.389726 -0.075677 0.141976 -0.198673 -0.005410 -0.241804 0.125243 0.220677 -0.109645 -0.026662 -0.126459 0.050168 0.106607 -0.057420 0.036095 -0.043901 -0.074730 0.044997 0.095611 0.067453 0.083419 -0.177480 -0.000697 -0.071293 -0.247447 0.039640 0.097354 -0.017738 -0.223449 -0.122371 -0.055842 -0.046766 -0.036558 0.031610 -0.053478 0.021293 0.079565 0.047306 0.088759 -0.103970 -0.079553 0.104517 -0.267655 -0.259236 0.071462 0.298894 -0.180989 0.071301 -0.326901 
its -0.431366 0.009259 0.023143 -0.047571 0.048740 -0.097537 -0.013265 -0.022858 0.175664 0.139397 0.192004 0.254045 -0.280551 0.200700 0.101411 -0.410111 0.015507 -0.003468 0.023757 -0.196284 0.170485 0.306010 0.017287 0.100658 0.058164 -0.042777 0.189012 -0.005187 -0.254062 0.131109 0.035907 0.036958 0.071050 0.012959 -0.058950 0.069277 -0.074655 0.073715 0.293890 0.074940 -0.091731 -0.178524 -0.132904 -0.083863 -0.049734 -0.077691 -0.040517 0.019243 0.098622 0.135019 
2010 -0.372924 -0.007897 0.121547 -0.026333 0.054716 0.079248 -0.090010 0.032193 -0.010868 -0.111119 -0.109374 0.046271 0.205401 -0.163655 -0.035601 -0.011790 0.217458 0.277171 0.013511 -0.153848 0.116902 0.315843 -0.024926 0.122969 0.322776 -0.243055 -0.039681 0.095819 0.276941 0.095263 -0.118809 -0.074339 0.005572 0.079334 0.023564 0.189500 -0.152632 0.077198 0.071521 0.128857 -0.011106 0.129322 -0.131151 0.117801 -0.228603 0.067819 -0.013237 -0.257792 -0.035861 -0.184384 
then -0.412088 0.092152 0.067605 -0.082724 -0.153221 -0.020502 0.102020 0.088018 -0.013081 -0.223556 -0.049308 0.080508 0.021611 -0.191587 0.045229 0.051688 0.092132 0.196000 -0.106707 -0.028618 -0.018704 0.165131 0.016424 0.149742 0.280845 -0.068042 -0.037174 0.031750 0.246042 -0.154430 -0.153315 0.147822 -0.113201 0.108809 0.126258 -0.131481 0.212218 -0.149270 0.069031 0.199814 -0.003279 -0.138262 -0.186301 0.075786 0.279994 0.207515 -0.183898 0.246964 -0.088218 0.271685 
she -0.407670 0.022797 -0.026249 -0.372093 -0.024840 -0.021566 -0.085256 -0.025150 0.141506 0.104537 -0.116724 -0.004430 -0.028616 0.014537 0.190575 -0.003746 0.015795 -0.155055 -0.047491 0.107259 -0.222348 -0.132461 0.031575 -0.253044 0.041885 -0.024883 -0.123297 -0.115176 0.097634 0.052289 0.086862 -0.280577 -0.070158 -0.003934 0.076924 0.118170 -0.043539 0.446251 -0.019963 -0.008252 -0.011170 -0.145418 0.037758 0.056718 -0.165044 0.026809 0.044921 -0.238312 -0.167966 0.202600 
net -0.455959 0.040371 0.197411 0.036304 -0.050059 0.118165 0.056333 0.050798 -0.232759 -0.096855 0.172198 0.329644 0.446740 0.226160 0.152689 0.030111 -0.135880 -0.123659 0.026839 -0.000022 -0.010515 0.003418 -0.076751 -0.049905 -0.013131 0.001332 -0.038370 -0.016174 -0.029139 0.054075 0.031400 -0.016565 -0.032580 -0.008095 0.124158 0.196544 0.129275 -0.219662 0.267681 -0.026141 -0.082455 0.240111 0.016943 -0.163623 -0.222636 -0.016594 -0.192322 -0.057285 0.061549 -0.030107 
be -0.327853 0.013810 -0.077697 -0.388361 0.099172 0.061462 -0.195991 -0.088676 0.092286 0.162282 -0.402972 -0.097901 0.300364 -0.078716 0.176868 -0.017739 0.067237 -0.033134 -0.034439 -0.015501 -0.054174 0.026544 -0.060720 -0.047434 0.018979 0.046262 0.120774 -0.106106 -0.161388 0.000389 0.085639 -0.019837 0.026733 0.032249 -0.126270 -0.220899 -0.000621 -0.411016 0.022066 0.007266 -0.028600 0.050081 0.115888 -0.058470 0.048435 0.004077 0.016092 0.290261 0.015964 -0.070668 
million -0.430053 -0.011919 0.129228 -0.057513 0.036828 0.127666 -0.066533 0.015719 -0.139431 0.026467 0.093567 0.012128 0.140063 0.030065 -0.116360 0.076878 0.369037 0.178691 0.286640 -0.007998 0.234737 0.076211 -0.008058 -0.100109 0.011779 -0.160797 -0.044026 0.172134 0.135163 0.109257 -0.134873 -0.126671 0.041830 0.091202 0.009685 0.155302 0.049707 0.026659 0.066126 -0.164879 0.079358 0.157142 -0.368998 0.187602 -0.166364 -0.059122 0.266940 -0.110663 -0.050532 -0.161402 
on -0.391265 -0.088080 -0.223111 0.098955 -0.076799 -0.025790 0.010505 -0.042565 -0.024463 -0.018451 0.134422 -0.077174 0.084773 -0.016897 -0.055492 0.071662 0.043268 0.069595 -0.068662 0.001547 -0.079696 -0.144562 0.035652 0.452746 0.212664 0.056141 -0.263138 -0.092045 -0.275359 0.021999 0.139117 -0.207411 0.132444 -0.066259 -0.108512 -0.246985 -0.052131 -0.004455 0.194448 0.102927 -0.144479 -0.141544 -0.061809 0.035766 -0.351394 0.071201 0.047015 -0.034998 0.010684 0.192431 
would -0.390085 0.000914 -0.022279 -0.390631 0.013780 0.013899 -0.124378 -0.020234 0.142884 0.078394 -0.197590 -0.030762 0.030300 -0.047846 0.215501 0.032273 0.023047 -0.177800 -0.026286 0.132039 -0.240573 -0.148688 0.100748 -0.271196 0.076855 -0.017324 0.074486 -0.163168 -0.128650 -0.003672 0.069447 -0.406003 -0.194513 -0.006272 -0.037841 0.146110 0.004593 0.083498 -0.049065 0.016762 -0.069424 -0.046701 -0.239819 0.070038 0.095491 0.223207 0.013615 -0.033032 0.177983 -0.133580 
months -0.571495 0.038253 0.132327 -0.226760 -0.074216 0.010549 -0.053366 -0.028035 0.100464 0.037170 -0.096508 0.049605 -0.026123 -0.039588 0.198384 -0.008102 0.101554 -0.072165 -0.116157 0.068440 -0.354081 -0.199590 -0.233438 -0.242549 0.050355 0.009043 -0.111105 -0.117437 0.013112 -0.049584 0.131187 -0.295316 -0.305527 0.021584 0.230921 -0.124392 0.016555 -0.166391 0.192012 -0.036746 -0.009058 0.118936 -0.105462 -0.002528 0.056502 0.129839 -0.003245 0.140448 0.010130 0.108714 
owner -0.332549 0.006489 0.083700 -0.109197 -0.171298 -0.107923 0.260781 0.268144 0.001564 -0.117538 0.056013 -0.160792 0.066886 -0.225132 0.006772 -0.081697 -0.086336 0.039334 -0.018935 0.228073 0.123623 -0.017116 -0.142935 0.042533 -0.013516 0.077913 0.107151 -0.130219 -0.022630 0.079300 -0.088741 0.248959 -0.128376 -0.110993 -0.001900 -0.001191 -0.438556 0.071873 -0.135345 -0.137510 -0.222981 -0.172309 -0.113866 -0.036264 0.137669 0.032642 -0.139539 0.101626 -0.139603 -0.130587 
from -0.334678 0.116937 -0.021818 -0.095674 -0.015434 -0.016990 0.054176 -0.044921 0.044480 0.062066 0.180761 0.183117 -0.252424 0.106549 0.221156 -0.359668 0.091297 -0.024292 -0.026683 -0.257241 0.162920 0.332304 0.071982 0.110755 0.028443 0.008546 0.055005 -0.087993 -0.168355 -0.111309 0.150551 0.087445 -0.059903 -0.167337 0.157920 -0.126822 0.037329 -0.173399 -0.024808 -0.172015 0.083303 0.193289 0.115117 0.123733 0.153770 0.168939 0.169566 0.044018 0.047832 -0.208015 
her -0.426643 0.001480 -0.039957 -0.399366 -0.005115 -0.028624 -0.099953 -0.010367 0.155137 0.109546 -0.042887 0.003929 -0.095077 0.056480 0.153111 0.011654 0.031681 -0.195484 0.072208 0.114334 -0.141314 -0.095604 -0.028620 -0.210488 0.067055 -0.050455 0.112351 -0.066651 -0.112248 -0.027449 -0.010225 -0.288010 -0.082371 0.050242 -0.054935 -0.271369 -0.039258 -0.416272 0.007645 0.065343 -0.065027 0.236281 -0.221926 0.055165 0.050102 0.094370 -0.001985 0.193786 0.109601 -0.157395 
wants -0.373560 0.098821 -0.308824 0.094114 0.113845 -0.099858 0.105435 -0.082025 -0.047323 -0.012196 0.173804 -0.035425 0.137645 -0.008264 -0.066981 -0.096205 -0.024104 0.197442 -0.194611 -0.091715 -0.069851 -0.187975 -0.038315 -0.213302 0.091067 -0.263495 0.031512 -0.019370 -0.032665 -0.074861 0.071652 0.011712 0.112368 0.131384 -0.178400 -0.021234 -0.099366 0.018112 -0.111242 0.068485 -0.060132 0.451338 -0.025718 -0.012168 0.239435 0.120410 0.019522 -0.385259 0.072335 -0.014254 
also -0.134271 0.145145 -0.162065 0.060144 0.138015 -0.045926 0.110258 -0.036857 -0.061003 -0.091003 0.106529 0.014298 0.078828 -0.101056 0.044866 -0.132488 0.017925 0.159137 -0.138767 -0.141359 -0.041054 -0.371301 -0.058219 -0.329764 0.151899 -0.547471 0.187077 -0.022090 -0.164207 -0.072319 0.149671 0.131564 0.248251 0.089510 -0.125725 0.094089 -0.042902 0.034040 -0.094967 -0.057320 -0.001567 -0.020219 -0.015907 0.029111 -0.108919 -0.015808 0.036246 0.026893 -0.029048 0.073083 
no -0.542512 -0.086207 -0.140035 0.130190 -0.209921 -0.132651 0.032788 0.048976 0.134030 -0.007702 -0.067659 0.058344 0.072572 -0.066827 0.106950 0.012942 0.051348 -0.000396 0.049026 0.123983 -0.005869 -0.134833 0.011261 0.356691 0.194852 -0.090768 -0.012699 -0.049841 -0.148613 0.012310 -0.101260 -0.257761 0.255454 -0.178049 0.143279 -0.098560 0.109977 -0.016987 -0.094044 -0.343123 0.309015 -0.008368 0.034225 0.122376 -0.274214 -0.112332 -0.055352 -0.041712 0.044157 0.161636 
last -0.334050 -0.011323 -0.102487 0.022676 -0.129320 -0.047961 0.103338 -0.060939 -0.029464 -0.030930 0.098231 -0.054469 0.069043 -0.000694 0.008867 0.077413 0.057346 0.167472 -0.322346 -0.039089 -0.313744 0.299450 -0.093702 -0.210702 -0.109891 0.124781 0.122602 0.181318 -0.200929 0.065338 -0.423406 -0.140177 0.259221 -0.084654 -0.049061 -0.171576 -0.078910 0.145117 0.052379 -0.020922 -0.128157 0.155977 -0.004363 0.067986 0.069855 0.032135 0.014534 -0.252425 -0.055044 -0.003655 
feel -0.248101 0.371431 -0.034590 0.188142 -0.235561 0.095949 -0.399997 0.088058 0.229569 0.048485 0.141926 -0.178144 0.073991 -0.081071 0.063842 0.093323 -0.091820 -0.116779 0.016191 0.079457 0.101598 0.148487 0.022528 -0.037118 -0.022560 -0.174857 0.044016 -0.013701 0.054193 0.040154 -0.061366 -0.044117 0.131116 0.053144 -0.018453 -0.011923 0.084359 0.042438 -0.065705 -0.057428 -0.175640 0.110704 0.000859 -0.264055 0.045542 -0.124288 0.018820 0.050396 0.097090 0.471773 
experts -0.473012 0.178116 -0.160505 -0.078009 0.127994 -0.101928 -0.031479 -0.061810 0.089404 0.082513 -0.266002 0.002500 0.322154 -0.034559 0.004015 -0.172490 -0.071935 0.129265 -0.080339 -0.025579 0.108110 -0.078703 -0.006153 0.066248 -0.301175 0.199309 -0.085060 0.108011 -0.135088 -0.037824 -0.028047 0.310728 0.044338 -0.002211 -0.120000 0.065826 0.311032 -0.110194 0.073804 -0.158196 -0.049622 -0.276048 -0.239037 0.008794 -0.075781 -0.097974 0.073884 0.183124 -0.104673 -0.093972 
feet -0.230656 0.055917 0.035646 -0.063002 -0.165884 -0.514737 -0.047820 0.062727 -0.007590 -0.022959 0.007862 0.017933 0.039747 -0.041382 0.085023 0.254149 -0.136867 0.228568 0.329182 -0.375716 -0.080947 0.007304 -0.042633 -0.067838 -0.031944 0.019222 0.007817 0.112227 -0.021190 -0.012041 0.094868 -0.034833 -0.061877 0.048076 0.104140 -0.111442 -0.017294 0.089773 0.017090 -0.183389 -0.319136 0.084736 0.248755 0.192846 -0.068202 -0.046480 0.057501 -0.012462 0.073673 0.038739 
did -0.240656 0.024347 0.136771 0.083696 -0.027366 -0.017642 0.180164 -0.475577 0.214287 -0.088947 -0.018522 -0.137030 0.059990 -0.012986 0.007551 0.041312 -0.077611 -0.094183 0.172651 -0.080144 0.119527 0.042749 0.018785 -0.098850 0.018936 -0.109992 -0.223164 -0.441019 -0.171407 -0.007115 -0.348405 0.108721 -0.025932 0.077414 -0.072672 0.008888 -0.072429 0.075509 -0.059239 -0.002604 -0.008944 0.061535 0.019646 0.072016 -0.166459 -0.032143 0.063387 0.267190 0.057430 -0.006158 
january -0.439667 -0.019452 0.021245 -0.047738 0.053181 0.039807 -0.027512 0.055944 0.005561 -0.308361 0.072763 -0.002383 -0.054590 -0.215688 -0.014556 0.043970 -0.033413 -0.022281 -0.018569 -0.098780 -0.092864 0.011882 -0.035556 0.280099 -0.605839 -0.089994 0.277726 -0.259982 0.105619 0.047150 0.052617 -0.102481 0.165980 0.219327 0.079181 0.129630 -0.040756 0.104090 0.050561 0.091654 0.098545 -0.001498 0.013946 0.104869 0.092411 0.014802 0.043031 0.011788 -0.024841 -0.046008 
borrow -0.426969 0.128309 -0.182314 -0.084535 0.227157 -0.009145 0.018461 -0.026296 -0.040459 -0.158418 0.115864 -0.026961 0.021566 -0.099958 0.025125 0.009878 0.072655 -0.060235 0.191805 -0.010232 0.093594 -0.113464 -0.463891 -0.015181 -0.030826 0.073113 0.096715 0.165770 0.053847 0.017539 -0.243978 -0.023345 -0.118274 -0.045705 -0.422040 -0.149154 -0.036576 -0.171968 -0.181491 0.056868 0.082168 0.011669 0.098328 -0.006126 -0.066797 0.075125 -0.202407 0.081779 0.241287 0.014360 
large -0.393277 -0.038690 0.122758 0.058886 0.084260 0.029002 -0.070031 0.027360 0.044535 -0.188026 0.048143 0.057145 -0.036593 -0.138465 -0.074142 -0.027364 -0.023139 0.032803 -0.050767 -0.135362 -0.175683 -0.023038 -0.006768 0.263802 -0.603240 -0.090141 0.242725 -0.271806 0.109876 0.075234 0.108668 -0.192382 0.110868 0.279689 0.088152 0.131241 -0.112147 -0.071533 0.118393 0.051714 0.061666 0.053765 -0.005847 0.050481 0.006585 0.033437 0.053051 -0.049686 -0.044208 0.094781 
22.4 -0.330348 -0.097458 0.174488 -0.055209 0.119810 0.180428 -0.142538 -0.056165 -0.145812 0.051259 0.116616 0.042016 0.060095 0.103864 -0.142159 0.089795 0.271670 0.033736 0.269164 -0.067949 0.061171 -0.047875 -0.203501 -0.055275 -0.055974 -0.082557 -0.010388 0.227696 0.048085 0.259081 -0.109931 0.010256 -0.059403 0.076728 -0.167997 -0.186434 0.037621 -0.319786 0.055022 -0.243284 0.047498 -0.020062 -0.239416 -0.010858 -0.099031 -0.122775 0.092527 0.089766 0.037268 0.221988 
multi-billion-euro -0.140234 -0.102968 -0.097292 0.089956 -0.074517 0.010426 0.013151 0.071973 0.028742 -0.183214 -0.076160 0.027342 -0.005978 -0.188807 0.161405 -0.054663 -0.041338 -0.078619 0.019801 0.069258 0.212358 0.177952 0.093369 -0.223554 -0.093668 0.064405 -0.319809 0.292549 -0.326987 -0.058951 0.155264 -0.111915 -0.051361 0.555794 0.000700 0.022826 -0.137943 -0.002566 0.040741 -0.027739 0.126330 0.044017 0.029443 0.075273 -0.068922 -0.065215 -0.012867 0.114338 0.048257 0.029102 
rarely -0.218392 0.028732 0.113214 -0.109940 -0.181301 -0.134569 0.261368 0.250001 -0.011044 0.029863 0.040216 -0.172506 0.085786 -0.153816 -0.048697 -0.080817 -0.076523 0.036623 0.005797 0.231587 0.114543 -0.050355 -0.022077 0.047951 -0.019889 0.076676 0.128583 -0.141493 0.008564 -0.071595 -0.078476 0.229795 -0.151212 -0.066360 0.159882 -0.217271 -0.510619 0.135831 0.027324 -0.178071 -0.179966 0.107925 -0.109736 -0.040275 -0.037393 0.015467 -0.116972 -0.042619 -0.125945 0.138326 
found -0.330241 0.007383 -0.035582 0.025024 -0.193329 -0.160925 0.031419 0.081310 0.160665 0.039837 -0.048057 0.060119 0.040761 -0.020643 0.025712 0.072994 -0.036182 0.036040 0.018995 0.181485 -0.019775 -0.120174 -0.041129 0.360921 0.158633 -0.177408 0.031142 0.019018 -0.110437 -0.034050 -0.184221 -0.203773 0.185416 -0.089458 0.064946 -0.079174 0.141967 0.083964 0.057697 -0.395499 0.429875 0.059556 0.103035 0.078223 0.035235 -0.214558 -0.075074 -0.000647 0.122871 -0.127712 
though -0.354571 -0.111878 -0.306387 0.062100 -0.023610 -0.087328 0.013661 -0.077520 0.006226 0.089557 0.180604 -0.094909 0.102593 0.115974 -0.205113 0.000221 -0.129892 0.147379 -0.198730 0.021849 -0.035424 0.006402 0.005465 0.130175 0.068210 0.031233 -0.339470 -0.095921 0.152718 -0.009043 0.153001 -0.065069 0.109475 0.089441 0.008915 0.073380 -0.074443 0.004844 -0.069813 0.093390 -0.088302 0.265034 -0.063077 -0.049497 0.367369 0.184634 -0.010850 -0.186054 0.215672 -0.168346 
quarter -0.460604 -0.121588 0.267318 0.042239 0.163013 0.106133 -0.128861 0.033982 0.013854 -0.224070 -0.025842 0.121186 0.113279 -0.160082 -0.076430 -0.049481 0.059014 0.202664 -0.058425 -0.148388 -0.017384 0.190512 -0.189290 0.092907 0.226455 -0.165065 -0.116883 0.106384 0.178881 0.116087 -0.077854 -0.054881 -0.109324 -0.073849 0.022933 -0.046633 -0.040599 -0.013873 0.002623 0.018427 -0.154623 -0.169999 -0.142790 -0.080107 0.317956 0.030312 -0.204771 0.313931 0.049204 0.147895 
where -0.470939 -0.073519 -0.060871 -0.217300 0.095209 0.131454 -0.079849 0.010734 -0.082447 -0.311329 0.139357 -0.102224 -0.101980 -0.178172 -0.014915 0.187828 0.056827 -0.153653 0.175948 -0.051226 0.020734 -0.015262 -0.192215 0.174377 -0.383909 -0.040703 0.262005 0.001800 0.003128 0.119348 -0.107692 0.170669 0.150620 0.053483 -0.227182 -0.264908 0.064697 -0.193066 -0.058853 0.015838 0.090279 -0.077605 0.065388 0.061630 -0.105037 -0.073346 -0.037742 0.082970 0.056165 0.003330 
system -0.155546 0.019979 0.065288 -0.125176 -0.080021 -0.160681 0.078877 0.089341 0.165305 0.146268 0.103074 0.152398 -0.117940 0.148886 -0.019526 -0.118118 -0.029232 0.104252 0.061002 0.118741 0.179914 0.110635 -0.068601 0.051995 0.039904 -0.062896 0.259560 -0.005254 -0.255681 0.018307 -0.118943 -0.007591 0.197405 0.243636 0.051726 -0.092170 0.087302 0.131872 0.045426 0.405241 -0.113684 -0.167538 -0.135335 -0.120318 -0.034478 -0.264888 -0.189840 -0.019674 -0.090481 0.293263 
improvise -0.324780 -0.011841 -0.006283 -0.274655 0.001282 0.003527 -0.052541 0.046448 0.112642 -0.094648 -0.109325 -0.017012 -0.015076 -0.118939 0.176151 0.046191 -0.041117 -0.134069 -0.052681 0.142338 -0.186209 -0.109363 -0.048571 -0.221149 0.087436 -0.026088 0.069402 -0.154093 -0.136870 0.038261 0.024361 -0.393252 -0.220021 -0.083577 -0.074737 -0.069940 0.085704 -0.185387 0.014337 0.046238 -0.121069 0.011101 -0.364971 0.102993 0.039119 0.317313 -0.024181 0.124245 0.298240 -0.052550 
set -0.327257 0.065899 -0.008006 -0.121167 -0.040021 0.014789 0.060827 -0.000810 0.008491 -0.077288 0.148526 0.131528 -0.225594 0.017235 0.220186 -0.271525 0.059480 -0.020839 -0.089008 -0.228213 0.132557 0.319418 -0.065331 0.108164 0.017259 0.004005 -0.066537 -0.106935 -0.101185 0.136477 0.192153 0.156409 -0.072648 -0.283035 -0.100733 -0.067407 0.125990 0.051292 -0.095132 -0.231076 0.131205 0.066235 0.236456 0.152190 0.000507 0.210312 0.250986 0.052879 0.049465 -0.163803 
people -0.126431 0.272458 -0.117892 0.112889 0.106581 -0.005345 -0.101275 -0.010475 0.081878 0.054687 0.179525 -0.008101 0.026372 -0.092724 0.157372 -0.147984 0.017491 -0.038928 0.069427 -0.125862 0.150467 0.100878 -0.057923 0.008303 0.067093 0.170920 0.153849 -0.112079 0.006037 -0.071761 -0.005418 -0.142582 -0.033496 0.026294 -0.067837 0.070127 0.018956 -0.025890 -0.149775 -0.263243 -0.101010 0.212399 -0.083405 0.335439 0.253939 0.370559 -0.116158 0.154313 -0.331038 0.112836 
trend -0.290251 0.000956 0.030911 -0.092331 -0.047419 0.031191 0.068704 0.118276 -0.015490 -0.376146 -0.001076 0.032378 -0.028606 -0.280182 0.071109 0.054284 -0.032596 0.119532 -0.145591 -0.004171 0.016857 0.176464 0.024359 0.136601 0.221822 -0.053527 -0.090028 0.005622 0.195766 0.051377 -0.146308 0.176454 -0.111099 -0.097745 -0.041322 0.055852 0.348333 0.031666 -0.013297 0.223212 -0.075352 0.084302 -0.220525 0.070726 -0.169782 0.232945 -0.305404 -0.174742 -0.064333 -0.077511 
house -0.379117 -0.049546 -0.037937 -0.392971 0.044775 -0.027058 -0.068284 0.007194 0.162050 0.044613 0.113569 0.074440 -0.274103 0.108924 0.112986 -0.126582 -0.095990 -0.178376 0.009617 0.054284 0.007023 0.051458 -0.031113 -0.146389 0.041242 -0.085682 -0.075680 -0.019828 0.047104 0.033596 -0.010537 -0.146439 0.144502 -0.031980 0.049004 0.275005 -0.075784 0.495549 -0.037902 0.121142 -0.090370 -0.296609 -0.098679 0.003516 0.093040 -0.132007 -0.030609 -0.046156 -0.051459 -0.064033 
ligety -0.182003 0.063270 0.120803 0.026918 -0.051360 0.025655 0.311288 -0.535336 0.120223 -0.254919 0.025473 -0.168665 0.044113 -0.130615 0.121795 0.067919 -0.077955 -0.051456 -0.020284 0.018682 0.088037 0.125480 -0.039013 -0.024373 -0.039894 0.094723 0.074545 0.172710 0.051423 0.267945 0.154519 -0.119442 0.169643 -0.265891 -0.031056 -0.087869 0.100470 0.169522 -0.036408 0.134269 0.093478 -0.020052 -0.074185 -0.047470 0.009067 -0.031290 -0.041716 0.072817 0.067206 -0.183973 
officials -0.331480 0.147316 -0.027991 0.004933 -0.095829 0.062324 0.030339 -0.016197 -0.196632 -0.215565 -0.275776 0.147084 -0.231769 0.002666 -0.275595 0.037468 -0.103815 -0.054897 0.058644 -0.037983 -0.033958 0.036800 0.050296 -0.096478 0.335270 0.326609 0.122128 -0.221011 0.045291 -0.007531 0.066932 0.053305 0.358025 0.209542 -0.040978 -0.012150 0.106527 -0.031902 -0.039519 -0.130033 -0.134577 0.102641 -0.088320 -0.051374 -0.115679 0.071800 0.069426 -0.108611 0.052926 0.163576 
safe -0.210724 0.071480 -0.099121 -0.201800 0.115014 -0.007680 -0.112838 -0.077636 0.076698 0.155165 -0.395866 -0.055107 0.354854 -0.054809 0.068649 -0.127574 -0.043226 0.091066 -0.094147 -0.041337 0.069870 -0.035810 0.045917 0.065805 -0.253023 0.206104 0.009737 0.008293 -0.224264 0.001909 0.059100 0.300668 0.077717 0.002505 0.046795 0.089551 0.308021 0.171530 -0.009606 -0.201569 -0.041911 -0.029701 -0.133948 -0.072565 -0.028401 -0.159049 0.124912 -0.130021 -0.100061 0.009860 
close -0.181043 0.274386 -0.116918 0.113486 0.102254 0.029949 -0.171652 0.060858 0.113482 -0.096279 0.159039 -0.093874 0.081298 -0.223997 0.114664 -0.002136 -0.094395 -0.057875 0.039852 0.013592 0.133655 0.054202 -0.280690 -0.055554 0.045916 0.055920 0.097045 -0.055191 0.118432 0.020828 -0.141056 -0.148307 0.061160 -0.010602 -0.233802 0.134794 0.120843 0.173531 -0.225545 -0.084810 -0.228496 0.122431 -0.093291 -0.164140 0.269791 -0.130794 -0.192497 0.259926 0.030324 0.190001 
thing -0.465267 -0.104384 -0.300368 0.080573 -0.052891 -0.056395 0.093762 -0.065481 -0.062727 -0.092299 0.179787 -0.108101 0.126715 -0.022222 -0.101778 0.055510 -0.048308 0.217911 -0.354920 -0.048134 -0.221253 0.210256 -0.116586 -0.254315 0.010548 -0.057792 0.109260 0.017705 -0.144986 0.131409 -0.159124 -0.074319 0.129304 -0.022873 -0.120842 -0.020904 -0.059392 0.002961 0.228058 0.040109 -0.133166 -0.408447 -0.024670 0.036517 0.058131 0.121227 0.005715 0.161197 0.024296 -0.053763 
3.8 -0.251416 -0.008162 0.117694 -0.020854 0.029308 0.101144 -0.056384 0.017565 -0.099361 -0.000973 0.007439 0.032265 0.148845 -0.020783 -0.087833 0.030788 0.300376 0.241490 0.165503 -0.061400 0.206960 0.179848 0.107785 -0.016613 0.133589 -0.220635 -0.084939 0.147218 0.256109 -0.048244 -0.134115 -0.164242 0.021267 0.095602 -0.091586 -0.162510 -0.024611 0.040199 -0.148842 -0.100689 0.094788 -0.126373 -0.414904 0.244701 0.108275 -0.019357 0.263600 0.081758 -0.063138 0.097742 
was -0.265968 -0.053152 0.178099 0.017819 0.084633 0.109490 -0.101404 0.010250 -0.068241 -0.005087 -0.004309 0.053072 0.137082 -0.020864 -0.134294 0.012696 0.282069 0.248243 0.151021 -0.097280 0.161750 0.175993 -0.076800 0.006200 0.154167 -0.225531 -0.084248 0.175049 0.256653 0.049235 -0.142179 -0.156900 -0.008939 0.092318 0.097578 0.047639 -0.063034 -0.112252 0.122496 -0.109236 0.063190 -0.038687 -0.406571 0.207627 0.127144 -0.021848 0.226424 0.104631 -0.051837 0.148456 
cargo -0.211224 -0.194165 -0.152814 0.150130 -0.122628 0.001369 0.007052 0.117574 0.084787 -0.271585 -0.143505 0.004895 0.009883 -0.073162 0.184965 -0.094433 0.023200 -0.080036 0.046560 0.027634 0.130523 0.067031 -0.156794 -0.110004 -0.048019 0.011052 -0.069446 0.093568 -0.058155 0.165956 -0.006576 -0.025907 0.015487 0.039605 0.279712 0.108680 0.031504 -0.175596 -0.495345 0.048545 -0.071228 -0.198594 0.024063 -0.177779 -0.060665 0.163477 0.347289 -0.023180 -0.053341 0.006663 
mcgrath -0.283449 -0.019335 0.263100 0.131800 0.031187 -0.022862 0.115033 -0.498909 0.199663 -0.094309 0.009327 -0.082656 0.049809 -0.009154 -0.063581 -0.037507 -0.025117 -0.051506 0.034230 0.065770 0.040466 -0.007696 -0.115203 0.024724 0.028394 0.044594 0.182482 0.340084 0.093595 0.164205 0.389538 -0.148456 0.046414 -0.073862 0.021156 0.175928 0.006291 0.012847 0.081400 -0.080895 -0.194313 0.094360 0.035122 -0.072522 -0.106489 -0.011386 -0.048997 0.234496 0.024818 0.054956 
driving -0.207029 -0.001714 0.021032 -0.133317 0.065346 0.065793 -0.124370 -0.017622 0.028715 -0.000022 -0.300968 -0.030908 0.308925 -0.160635 0.067534 -0.031682 0.128633 0.200342 -0.069346 -0.158040 0.097576 0.350404 0.051331 0.164259 0.312415 -0.165517 0.074472 -0.045267 0.130210 -0.040385 0.000191 -0.009454 0.107305 0.063883 -0.013068 -0.107960 -0.290998 -0.133331 -0.011408 0.273886 -0.004927 0.009788 0.337339 -0.017518 0.075253 0.051849 -0.129368 0.107989 0.001550 0.102199 
federal -0.444252 0.076496 0.017564 0.100788 0.236452 -0.030648 0.024135 0.060271 0.034021 -0.192553 0.030814 0.026453 -0.011484 -0.142374 0.013867 -0.069407 -0.028280 0.007905 -0.017665 -0.108970 -0.095354 -0.034723 -0.231311 0.013501 0.050499 0.001858 -0.037101 0.126616 -0.023264 -0.297685 -0.130589 -0.071860 -0.203740 -0.074095 -0.340892 0.085120 0.287382 0.151409 -0.275603 0.038512 -0.137197 0.014904 0.057572 -0.170466 -0.039382 0.099510 -0.410094 0.059892 -0.194950 -0.010448 
avoid -0.221965 0.226362 -0.186692 0.066292 0.042533 0.019079 0.118980 -0.112331 -0.173872 0.047710 0.146504 -0.021965 0.074134 -0.004466 0.070705 -0.037641 0.180099 0.098882 -0.063842 -0.132717 -0.094986 -0.283368 -0.220806 0.139524 0.069942 -0.007188 -0.133080 0.013621 -0.147691 -0.294016 0.085846 -0.039409 -0.051859 0.139289 0.072437 0.023326 -0.124542 -0.135802 0.149356 0.230847 -0.126577 -0.376781 -0.002106 -0.028118 -0.238853 0.055446 0.056144 0.215729 -0.038716 0.070308 
since -0.260214 -0.291359 -0.335952 0.062543 -0.069605 0.069380 -0.083454 -0.078845 -0.083669 0.077991 0.066374 -0.118946 0.016409 0.078003 -0.090217 0.141060 0.091654 -0.110105 0.181840 0.006568 0.043400 0.062135 -0.260257 -0.089991 -0.039144 -0.006063 0.247745 0.038010 -0.021156 0.241068 -0.018309 0.164211 -0.054859 0.015032 -0.036457 -0.171133 -0.013449 -0.355377 -0.255311 -0.060521 0.077913 -0.139879 0.076279 -0.039284 -0.040533 0.084621 -0.054230 -0.317511 0.010276 0.106586 
season -0.188719 0.005158 -0.012971 -0.197661 0.075558 0.064728 -0.145093 -0.046151 0.044412 0.060540 -0.355188 -0.056789 0.326311 -0.148224 0.110416 -0.032508 0.096611 0.134283 -0.080052 -0.129659 0.058715 0.287694 0.063637 0.130644 0.246763 -0.100230 0.108954 -0.092098 0.031175 0.001203 0.051229 0.002041 0.111093 0.054459 0.058035 0.113683 -0.255172 0.142682 0.012138 0.238607 -0.007567 0.058366 0.393271 -0.061251 -0.090060 0.033310 -0.122385 -0.238796 0.015399 0.034492 
aselton -0.362252 -0.089020 -0.300636 0.017399 0.001615 -0.101484 0.013414 -0.081083 0.029054 0.106844 0.189664 -0.083543 0.076211 0.149829 -0.212382 -0.038600 -0.173791 0.132714 -0.210016 0.035430 -0.008131 0.048146 -0.052085 -0.020562 -0.004428 0.015155 -0.374377 -0.065659 0.353417 0.053840 0.121495 0.015813 0.147708 0.130614 -0.175884 -0.225822 -0.086270 -0.087815 0.142272 0.076442 -0.056871 0.072393 -0.006052 -0.074524 0.023904 0.178415 -0.032189 -0.180059 0.222895 0.027417 
run -0.081934 0.030476 -0.027728 0.012857 -0.104906 0.018220 0.102531 -0.097372 -0.079937 0.014705 0.063451 -0.041795 0.034979 0.018582 0.056011 0.057567 0.096024 0.143239 -0.308963 -0.072921 -0.336727 0.280108 0.051293 -0.204525 -0.174860 0.174119 0.087016 0.239617 -0.199089 0.073570 -0.472794 -0.174340 0.325748 -0.120558 -0.060960 0.022483 -0.108980 0.036316 -0.067545 -0.049444 -0.102531 0.023086 0.002235 0.051716 -0.087742 -0.020354 0.016291 0.050968 -0.043384 -0.004923 
closed -0.131016 -0.009092 0.031546 -0.128471 -0.003343 -0.099747 0.012475 0.026042 0.158823 0.158490 0.137411 0.184660 -0.239428 0.199577 0.025234 -0.245196 -0.037872 0.015248 0.044396 -0.030347 0.173571 0.209828 0.062498 0.084379 0.053956 -0.075103 0.240924 0.009865 -0.269279 -0.069647 -0.060958 0.013621 0.178311 0.171542 -0.009324 0.011041 -0.026544 -0.115584 -0.139688 0.325784 -0.124175 0.141130 -0.213587 -0.152193 0.094797 -0.300544 -0.162895 0.010892 0.011055 -0.227647 
capital -0.490904 -0.075249 0.232858 -0.026889 -0.012660 -0.131331 -0.003164 0.128879 0.209108 -0.145550 0.035613 0.114122 -0.020721 -0.127789 -0.086571 0.028653 -0.089758 0.133457 -0.073744 0.067242 -0.134582 -0.074991 -0.459439 0.063458 0.095250 0.041855 0.043230 0.111640 -0.037584 0.309331 -0.116984 0.175026 -0.125180 0.020136 0.322065 0.067283 0.037804 0.137295 0.241938 0.076029 0.047338 0.185799 -0.013456 0.078805 0.033376 0.029006 -0.002218 0.075164 0.002581 0.102547 
international -0.422521 -0.047605 -0.060891 -0.177107 0.047418 0.083555 -0.048307 0.003872 -0.051980 -0.245040 0.111104 -0.084087 -0.050671 -0.130613 0.031442 0.145224 0.060652 -0.122148 0.134872 0.011892 0.070485 0.009937 -0.275284 0.022071 -0.021081 -0.001143 0.071462 0.160054 -0.074628 0.188363 -0.162918 0.276935 0.036417 -0.192220 -0.250288 -0.275748 0.206458 -0.220556 -0.031567 -0.006832 -0.032356 -0.080770 0.079700 -0.022524 -0.103742 -0.184288 -0.338125 0.114088 0.219487 -0.002316 
gov -0.421673 0.004404 0.132087 0.135807 0.088865 -0.052328 0.137054 0.196846 -0.061314 0.157835 -0.054866 -0.391270 0.025810 -0.042145 -0.066717 -0.205577 -0.121605 -0.337944 0.039401 -0.308421 -0.198214 0.075764 0.083334 0.012027 0.127479 -0.096497 -0.020951 0.212654 -0.013064 -0.035599 -0.033443 -0.103813 0.110543 0.132773 0.003169 -0.145923 0.387090 0.056085 -0.093279 0.176610 0.100176 -0.114598 0.048482 0.069588 0.095851 0.032438 0.023497 -0.061233 -0.025849 -0.032010 
issue -0.361553 0.062532 0.019649 -0.131044 -0.072090 -0.171983 0.126141 0.195128 0.171031 -0.294192 0.019681 0.049925 -0.000967 -0.192720 0.015637 0.069870 -0.105954 0.116461 -0.072078 0.129670 0.008501 0.006157 -0.122166 0.141462 0.136306 -0.041042 0.084529 0.095782 0.078698 0.067620 -0.283860 0.106396 -0.178366 -0.004348 0.272636 -0.300643 0.246118 0.144249 0.084101 0.187611 -0.048772 0.052947 -0.018633 -0.043011 0.093957 0.233363 0.085554 0.188736 -0.083370 0.133373 
corruption -0.477817 -0.069340 0.192036 0.131670 0.209910 0.019321 -0.059152 0.054266 0.060987 -0.176197 0.023024 0.047619 -0.042963 -0.108710 -0.049224 -0.068575 -0.031743 0.022569 -0.052344 -0.139382 -0.162070 -0.027724 -0.222169 0.017436 0.047729 -0.015229 -0.079876 0.140313 -0.049557 0.293003 -0.085247 -0.037129 -0.198858 -0.067168 0.127939 0.148503 0.299585 0.013652 0.193546 -0.003145 -0.194239 -0.000429 0.042008 -0.228628 0.065948 0.090638 -0.437429 0.145594 -0.193786 -0.047779 
red -0.272839 0.007953 0.103845 0.052124 0.001690 -0.496088 -0.341999 -0.196509 -0.354296 -0.152636 0.024139 -0.086497 0.013938 -0.037023 0.059395 -0.233780 0.211330 -0.241564 -0.269164 0.362332 0.090566 0.012700 -0.000144 0.041128 0.064999 -0.025834 0.058930 -0.058311 -0.010628 0.037948 -0.143048 0.085796 0.028515 0.087910 0.039961 0.041775 0.028235 -0.010140 0.057768 0.072977 0.047496 0.032291 0.014427 0.100626 -0.012179 0.032146 0.042212 0.008312 -0.050920 0.043714 
told -0.224902 -0.312483 -0.326995 0.281440 -0.181446 -0.046929 0.000440 -0.009075 0.024875 0.116384 -0.080659 -0.010922 0.062281 0.056422 0.003839 0.003961 0.007258 -0.023262 0.040263 0.018299 -0.000155 0.092148 -0.059801 -0.115156 0.010141 -0.031409 0.209460 -0.120704 0.074381 0.127190 0.004182 0.049226 -0.092850 0.038233 -0.175369 0.005956 0.032885 -0.067134 0.113103 0.001555 0.007377 -0.097263 0.034875 -0.041017 0.319445 0.271074 -0.081388 -0.458956 -0.210126 -0.008758 
we -0.416144 0.046718 0.138057 -0.003199 -0.096696 -0.049473 0.298591 0.299539 -0.183800 0.129937 0.025771 -0.479828 0.158336 -0.170496 -0.102596 -0.317679 -0.092018 -0.241436 0.096426 -0.042019 0.071962 0.052004 0.063403 -0.050922 0.000507 0.038812 0.048195 -0.067302 -0.021246 -0.073511 0.038964 -0.015666 0.043931 -0.121261 0.027669 -0.155065 -0.278410 0.061270 -0.083900 -0.049956 -0.066025 -0.129873 -0.044347 0.013228 0.113864 -0.072364 0.063882 -0.002880 0.117150 0.153272 
measures -0.104397 0.019426 0.047555 -0.010912 -0.077112 -0.588938 -0.247658 -0.078901 -0.300433 -0.094113 0.012940 -0.072571 0.024590 -0.039030 0.137475 0.108385 -0.029954 0.042927 0.185960 -0.271701 0.025729 0.080732 -0.010380 -0.111560 -0.066838 0.018695 -0.104569 -0.098143 -0.039614 0.002208 0.099378 -0.058428 0.101527 -0.168533 0.047196 -0.035912 -0.012446 0.034419 0.016769 0.170629 0.212192 0.044004 -0.242231 -0.272313 -0.027981 0.024082 -0.092844 -0.021051 -0.037761 0.034243 
jobs -0.165212 -0.146915 -0.218464 -0.065333 0.006211 0.084835 -0.086140 -0.094135 -0.108359 0.060821 0.144553 -0.168829 0.005489 0.108831 -0.162665 0.212430 0.096915 -0.105731 0.183590 0.002634 0.026772 0.103975 -0.039674 -0.095256 -0.041192 -0.010591 0.335383 0.060354 -0.068785 0.030454 -0.013890 0.274103 -0.159628 0.077877 0.116745 0.000746 0.000198 -0.179984 -0.275296 -0.124956 0.194662 -0.062699 0.184845 -0.083683 -0.246738 0.244218 -0.157169 0.239656 0.082096 0.016153 
gear -0.115673 0.049059 0.038672 -0.098674 -0.102100 -0.312275 0.169135 0.146247 0.301009 0.105406 0.008453 0.293742 0.158674 -0.159338 -0.330299 0.262110 0.307260 -0.355275 -0.153828 -0.015943 -0.031830 0.106381 -0.049553 0.011338 0.009194 -0.062269 -0.023765 -0.015518 -0.003433 0.015640 0.036794 0.173897 0.094130 0.121928 0.133839 -0.135420 0.066275 0.082771 0.038072 0.002627 0.006095 0.061069 -0.040711 0.064147 -0.053791 0.043963 0.079756 0.007992 -0.128619 -0.006722 
degree -0.160843 -0.054349 0.240126 0.120243 0.075086 0.060716 -0.097350 0.063074 0.014327 0.092228 0.102533 0.074876 0.087257 0.039425 -0.174215 -0.053697 0.086695 0.231314 0.092604 0.130853 0.097834 -0.119092 -0.055102 -0.266033 -0.108914 0.191291 -0.059455 -0.137451 -0.228323 -0.017815 0.146788 -0.165534 0.157659 -0.126210 0.057870 -0.074328 0.250790 0.038323 -0.002781 0.231913 0.067242 -0.178204 0.459743 0.040704 0.065174 0.183027 -0.066129 -0.063333 0.029212 0.098330 
trike -0.183358 0.019073 0.054799 0.001772 -0.060309 -0.578217 -0.279509 -0.116400 -0.335006 -0.117137 0.009394 -0.086069 0.022803 -0.044495 0.146421 0.022450 0.041718 -0.041895 0.071639 -0.113922 0.061364 0.081162 0.013951 -0.083893 -0.036154 0.007867 -0.082344 -0.130846 -0.036432 0.003058 0.034449 -0.025425 0.116287 -0.143615 0.005472 0.006768 0.005170 -0.000417 0.006521 0.234844 0.304920 0.005324 -0.293793 -0.281613 -0.012668 0.050520 -0.091323 0.019398 -0.080007 0.008601 
group -0.115081 0.058526 -0.071294 0.002255 0.079443 -0.003007 0.080901 0.008422 -0.047747 -0.183031 0.081147 0.007575 0.033134 -0.161139 0.066036 -0.086450 -0.019195 0.125164 -0.151450 -0.117745 -0.030545 -0.325166 -0.069826 -0.311648 0.162981 -0.579387 0.176843 -0.034118 -0.200101 0.030718 0.174899 0.207202 0.302990 0.014614 0.034246 -0.030004 0.033382 0.025878 0.027561 -0.092572 -0.023628 -0.024905 -0.027282 0.033667 0.097074 -0.064081 0.033855 0.031785 -0.070274 -0.078753 
debt -0.324991 -0.077153 0.241849 0.190206 0.075510 0.051188 -0.245287 0.026589 0.194027 0.002160 0.056618 0.113637 0.003284 -0.107498 -0.123388 -0.095755 -0.007526 0.100220 0.012127 -0.098272 -0.224561 -0.181181 -0.001571 -0.164970 0.074068 0.267574 -0.000501 0.125792 -0.080575 0.114010 0.070271 0.246280 -0.057697 -0.224065 0.075574 0.123960 -0.341311 -0.137458 -0.027306 0.114887 0.297397 0.067922 -0.051896 -0.063534 0.088026 -0.064004 0.125293 -0.019416 -0.082227 0.181448 
earthquake -0.405828 -0.019452 0.050752 -0.004497 0.050150 0.024304 -0.021862 0.048386 0.025180 -0.262105 0.054341 0.021081 -0.042635 -0.186619 -0.021007 0.007929 -0.036706 0.008951 -0.048247 -0.107041 -0.127390 0.012594 -0.073267 0.274745 -0.607226 -0.091645 0.257637 -0.292680 0.117528 0.038626 0.090818 -0.163844 0.147070 0.251280 -0.064459 -0.050641 -0.072124 0.057319 -0.052232 0.088428 0.084244 -0.076153 0.002120 0.094004 0.035411 0.034883 0.059666 0.080450 -0.045413 -0.106024 
box -0.134559 0.111946 -0.069491 0.021325 0.058103 -0.197955 0.141041 0.073407 0.194211 0.031025 0.046364 0.284664 0.207827 -0.221750 -0.302314 0.166118 0.446835 -0.481585 -0.115992 -0.162896 0.026045 0.150771 0.038296 -0.103206 -0.063187 -0.004011 -0.111326 -0.072382 -0.041123 0.056838 0.138616 -0.017527 0.082998 -0.109794 0.113004 -0.115833 -0.020638 0.056696 0.032454 -0.009157 -0.044584 0.031435 0.000151 -0.039843 -0.025272 -0.031874 -0.029924 0.014043 0.066407 -0.029277 
great -0.256981 0.144807 0.067212 -0.050024 -0.266166 -0.038621 0.160173 -0.017940 -0.067613 0.095829 0.010222 0.068881 -0.008254 0.039869 0.144992 0.024620 0.199702 0.100788 -0.112476 -0.018065 -0.174252 -0.090447 -0.210399 0.077663 -0.030130 0.019531 -0.061932 0.005622 0.094926 -0.241055 0.064161 0.223968 -0.284146 0.326347 0.338223 -0.188702 0.156878 0.049491 0.136841 0.022956 0.300346 0.077336 0.087929 -0.167349 -0.005438 -0.063839 -0.099798 0.012305 0.006641 0.086417 
works -0.074977 0.060224 -0.017478 -0.007138 -0.056607 -0.069014 -0.035428 0.188438 0.277840 -0.510684 -0.089782 -0.289385 0.154302 0.587967 -0.002762 -0.141265 0.288424 -0.002406 0.014313 -0.095068 -0.056397 -0.012878 0.019140 -0.027415 0.002721 0.055882 -0.012093 -0.034145 -0.007447 -0.040663 0.049197 0.004530 0.031022 0.003899 -0.038211 -0.000228 0.001127 0.010371 0.064071 0.002920 -0.012434 0.027988 0.004617 -0.047804 -0.018051 0.055132 0.161138 -0.023991 0.007418 -0.016662 
taking -0.439316 0.070535 -0.030685 -0.063592 -0.039350 0.064966 0.021960 0.021792 -0.151002 -0.330190 -0.155624 0.077279 -0.197965 -0.111199 -0.180375 0.080665 -0.090228 -0.077096 0.068658 -0.026502 -0.000857 0.050420 0.019280 -0.074156 0.316895 0.329222 0.139298 -0.184203 0.030254 0.007864 0.006463 0.159098 0.394564 0.138361 0.092625 0.072584 0.223103 0.092387 0.043942 -0.164775 -0.170014 -0.100069 -0.086984 -0.091771 0.196699 0.045149 0.039632 0.121573 0.126715 -0.068394 
favorite -0.196544 0.122451 0.026557 0.050279 0.079471 -0.019346 0.262530 -0.414156 0.119754 -0.244862 0.029991 -0.120141 0.054690 -0.144095 0.085073 0.019412 -0.090120 -0.047464 0.043631 0.024328 0.129964 0.050157 -0.324960 -0.007180 -0.004550 0.073655 0.088659 0.127678 0.056868 -0.169237 0.103440 -0.134061 0.068005 -0.221510 -0.261488 0.196501 0.073559 0.141006 -0.195278 0.120368 0.072870 0.084147 -0.046729 -0.024191 -0.127893 -0.008278 -0.047096 0.272924 0.050545 0.055794 
75 -0.292335 -0.052989 0.270572 0.149092 0.076183 -0.049677 -0.019178 -0.375619 0.125140 -0.070212 0.016889 -0.031850 0.030698 0.003935 -0.112545 -0.113405 0.035270 -0.059054 -0.043939 0.128293 -0.008021 -0.046990 -0.033178 0.053909 0.044415 0.036047 0.198005 0.376992 0.085523 0.067054 0.345849 -0.123635 -0.028107 0.003475 0.084114 0.089840 -0.006759 -0.121331 0.132860 -0.198995 -0.357793 -0.047408 0.153366 0.000593 0.158124 -0.027997 -0.038952 -0.223878 0.047854 0.033213 
credit -0.320973 -0.148725 -0.229613 0.141032 -0.137923 -0.061368 0.007347 -0.013439 0.024439 0.038116 0.031984 -0.038950 0.085736 0.004273 -0.044291 0.062855 0.002531 0.053748 -0.047244 0.074787 -0.051683 -0.092428 -0.004289 0.417626 0.225262 -0.025221 -0.119409 -0.137325 -0.222240 0.000244 0.065522 -0.302890 0.182838 -0.168726 -0.215131 -0.005850 0.038718 0.059302 0.237243 -0.199345 0.150982 0.092356 -0.020753 0.094741 0.330231 -0.020023 -0.004802 -0.144386 0.064739 -0.093871 
six-page -0.388834 0.126110 0.049105 -0.062053 -0.206041 0.117760 0.146905 -0.043070 -0.165901 -0.121956 0.064689 0.083304 -0.120504 -0.067850 0.303593 -0.130575 0.203133 0.032577 -0.168358 -0.182115 -0.040938 0.141474 -0.195909 0.096224 -0.036241 0.025067 -0.155147 -0.106797 -0.010512 0.001668 0.202863 0.206582 -0.191381 -0.188422 0.094241 -0.068121 0.246521 -0.024969 -0.116698 -0.166254 0.180743 0.005089 0.165510 -0.002048 0.128300 0.114481 0.084846 0.078798 0.116547 -0.272607 
total -0.222802 -0.329082 -0.378440 0.259303 -0.166460 -0.016055 -0.021286 -0.044163 -0.022081 0.115166 -0.014741 -0.066257 0.080125 0.085762 -0.074239 0.050788 0.010377 -0.021294 0.038649 0.018580 0.006007 0.163905 -0.164193 -0.152335 0.002909 -0.025819 0.286911 -0.125550 0.042124 0.143438 0.073249 0.088840 -0.157576 0.029562 0.100720 -0.085670 0.010236 -0.206761 -0.267168 -0.046992 0.073082 -0.080844 0.085194 -0.080238 -0.115666 0.328527 -0.111288 -0.158850 -0.098482 0.093506 
desultory -0.387952 0.018820 -0.118444 0.000731 0.071683 -0.024222 0.058851 0.049551 -0.001497 -0.295625 0.088413 -0.024795 0.042612 -0.201699 0.023152 0.005480 -0.091200 0.053285 -0.100583 0.018927 0.024259 0.144668 0.118850 -0.033996 0.076214 0.034101 0.059288 -0.111894 -0.009977 0.116444 -0.011354 -0.075962 -0.367776 -0.292227 0.209156 -0.049718 0.312386 -0.026382 0.004881 0.222887 -0.141221 -0.051360 -0.057067 0.157394 -0.085994 -0.470071 -0.067362 0.173947 -0.125781 -0.078638 
stressed -0.361370 0.287080 -0.060222 0.069491 -0.160997 0.065840 -0.045326 -0.041732 -0.202003 -0.129331 -0.445165 0.174900 -0.240862 0.124056 -0.416237 0.012725 -0.187618 -0.069690 0.079261 0.017389 0.010520 0.059975 -0.051823 -0.078922 0.040933 -0.031290 0.002871 0.006461 -0.111504 -0.085731 0.066290 -0.026179 0.080336 -0.090014 -0.079750 0.042832 -0.146155 0.039749 -0.076189 0.109784 -0.075231 0.085631 -0.051166 0.226651 -0.145974 0.129251 -0.058685 -0.159326 -0.119255 -0.069041 
group's -0.263549 0.025653 0.090169 0.025169 -0.026743 0.079019 0.041151 0.035696 -0.201006 -0.104629 0.175894 0.388776 0.535243 0.306918 0.209366 0.064743 -0.363606 -0.317786 0.026729 -0.018249 -0.039475 0.022764 0.042668 0.028236 0.067950 -0.008856 0.087021 0.020052 -0.010585 -0.015969 -0.032249 0.022296 0.045057 0.060080 -0.047494 -0.066841 -0.074865 0.088059 -0.100243 0.035707 0.020826 -0.108505 -0.000034 0.068308 0.105823 0.019905 0.061831 0.029336 -0.042408 -0.004478 
efforts -0.331898 0.259841 -0.083414 0.075378 -0.065357 0.008504 -0.058530 -0.033190 -0.092805 -0.063044 -0.334618 0.110606 -0.094537 0.098039 -0.296104 -0.033980 -0.162879 -0.041537 0.066946 0.040921 0.064871 0.023453 0.069409 -0.021776 -0.195175 -0.176617 -0.063052 0.177249 -0.201500 0.041341 0.000067 -0.007897 -0.110869 -0.279900 0.080934 -0.041831 -0.148227 -0.060352 0.114425 0.174901 -0.050068 -0.167981 -0.075773 0.349124 0.026263 0.120760 -0.130219 0.099405 -0.200000 -0.216497 
sky-high -0.330979 0.249981 -0.220535 0.077048 0.256392 -0.130194 0.100878 -0.036783 0.014276 -0.049784 0.084772 0.046523 0.101372 -0.055001 0.017334 -0.146035 0.014751 0.054313 0.094550 -0.017079 0.083198 -0.165271 -0.167201 -0.037046 -0.028295 0.111014 0.007693 0.125819 0.198393 -0.162337 -0.251012 -0.208338 -0.178892 0.026073 -0.219581 0.115148 -0.126305 0.003076 -0.082546 0.112735 0.107100 -0.056639 0.091320 -0.023634 -0.081133 0.201665 -0.283594 0.001611 0.405987 0.127544 
woolworths -0.335033 -0.055748 0.186131 0.074669 0.068418 -0.160068 0.002320 0.069098 0.203523 0.030673 0.049225 0.164293 0.032222 -0.028546 -0.209222 0.001193 0.033643 0.098475 -0.034172 -0.007029 -0.160565 -0.164467 -0.113721 0.191989 0.095724 0.028542 -0.023174 0.101134 -0.113231 0.236910 -0.080937 -0.087407 -0.158084 0.062259 0.345576 -0.137142 -0.042733 -0.025625 0.372798 -0.019954 -0.145394 0.098884 -0.018644 -0.093996 -0.264569 0.053161 -0.104536 -0.065369 -0.006989 0.263989 
control -0.194970 -0.006050 0.212449 0.171929 0.048592 0.068607 -0.252373 0.051261 0.161595 0.060356 0.142628 0.040348 0.050123 -0.073487 -0.130577 -0.039349 -0.014839 0.142645 0.013437 0.011780 -0.092624 -0.122725 -0.075290 -0.223329 0.038348 0.295778 -0.015564 -0.027273 -0.156149 0.230210 0.129774 0.124663 0.110193 -0.122508 0.052646 0.220952 -0.028790 -0.084852 0.121582 0.244792 0.294514 0.200595 0.202324 0.218214 0.117491 0.036541 0.069885 0.142647 0.158969 0.093404 
equally -0.223859 0.059604 -0.094704 -0.247976 0.130208 0.012013 -0.146326 -0.089212 0.082748 0.172248 -0.469761 -0.071147 0.412435 -0.082508 0.100992 -0.123209 -0.015041 0.106256 -0.104521 -0.069495 0.069403 0.042868 0.060107 0.086828 -0.159065 0.165396 0.055527 -0.035793 -0.206678 0.009309 0.079380 0.260058 0.103039 0.017998 0.079010 -0.002541 0.190553 0.086378 -0.037045 -0.110047 -0.037964 0.165408 0.030283 -0.093765 0.036130 -0.131275 0.070792 -0.174716 -0.075440 0.113432 
apple -0.113948 0.282450 -0.042595 0.141043 -0.065485 0.079121 -0.261459 0.008121 0.126203 0.096921 0.216765 -0.112149 0.072281 -0.138101 0.169965 -0.016429 -0.002733 -0.073317 0.026935 -0.077775 0.104391 0.092637 0.064599 -0.019422 0.078341 0.171161 0.088586 -0.149653 0.058403 0.091376 0.044495 -0.074116 0.092024 0.127061 0.052998 -0.104082 0.052708 0.020315 0.094524 -0.224745 -0.187282 -0.148522 -0.163359 0.271052 -0.237407 0.278024 -0.158679 -0.111028 -0.359406 -0.159038 
point -0.164730 0.203891 -0.112634 0.054872 0.072727 -0.010003 0.134728 -0.055795 -0.110230 -0.059977 0.078681 0.033812 0.058733 -0.079860 0.111584 -0.130743 0.099963 0.136619 -0.118686 -0.148221 -0.063314 -0.350651 -0.236219 -0.279977 0.114737 -0.470262 0.158613 -0.021923 -0.137638 -0.342781 0.150522 0.136147 0.164236 0.090196 0.038516 0.095219 -0.011645 -0.092815 0.054459 -0.071227 0.048790 -0.033059 0.005434 0.010585 0.151916 -0.055081 0.023606 0.007924 -0.041345 0.047988 
tuesday -0.446586 0.144214 -0.152643 0.022365 0.187648 -0.057546 0.090010 0.055601 0.007124 -0.328953 0.084976 0.015716 0.053188 -0.243337 0.067720 -0.050624 -0.058880 0.045093 -0.034409 0.007681 0.056639 0.055985 -0.246461 -0.017311 0.065269 0.059714 0.064297 -0.042444 -0.000013 -0.130014 -0.108618 -0.126170 -0.349278 -0.300752 -0.230628 0.108608 0.264401 0.089310 -0.110197 0.206586 -0.115272 0.008022 -0.019096 0.131926 0.054734 -0.374092 -0.119692 -0.037533 -0.090862 0.010019 
nmhg -0.303786 0.018462 0.111959 0.025188 -0.027732 0.091720 0.044940 0.042090 -0.223746 -0.135174 0.189625 0.406392 0.553358 0.300818 0.214936 0.068189 -0.359198 -0.311678 0.017964 -0.017630 -0.034058 0.028183 0.089497 0.021778 0.058307 -0.009519 0.049367 0.014425 -0.013818 -0.044194 -0.018480 0.016492 0.023069 0.020202 -0.033206 -0.050972 -0.005836 0.015842 -0.073164 0.016263 -0.027031 -0.060953 -0.001431 -0.023827 0.040861 0.005179 -0.060734 -0.013998 0.011297 0.068623 
confuse -0.306882 0.216100 -0.134368 0.019652 0.136792 -0.095901 0.068846 0.126070 0.111013 -0.327522 0.027184 -0.013949 0.054344 -0.101492 0.037880 -0.053091 -0.026569 0.040481 0.021375 0.053517 0.066245 -0.026343 -0.302593 0.046975 0.039051 -0.028126 0.087113 0.095997 0.038962 -0.138969 -0.263923 -0.075030 -0.213457 -0.111861 -0.263283 0.198705 0.149047 0.082162 -0.179767 0.170377 -0.064814 -0.064879 0.088795 -0.206045 -0.055037 0.224924 0.318859 -0.076071 0.013645 -0.172744 
chula -0.318926 -0.058282 0.225626 0.139467 0.087476 -0.156142 -0.202127 -0.203641 -0.058684 -0.068197 0.021354 0.003339 0.010353 0.008427 -0.103354 -0.225117 0.158435 -0.122526 -0.206617 0.263032 -0.033742 -0.074583 -0.044071 0.073893 0.066398 -0.006671 0.133545 0.212751 0.018532 0.080341 0.040785 0.006066 -0.116783 0.154881 0.024025 0.074961 -0.012615 0.008605 0.039149 -0.265473 -0.435000 0.046474 0.308767 0.213583 -0.075470 -0.052761 0.046593 0.126354 0.079852 0.022448 
one -0.251354 0.019086 0.105837 -0.111362 -0.163982 -0.112950 0.240005 0.242442 -0.009422 -0.022023 0.044368 -0.158605 0.071639 -0.164081 -0.034178 -0.070370 -0.075825 0.032474 -0.005614 0.203314 0.103728 -0.034564 -0.276629 0.043377 -0.016208 0.068913 0.104957 -0.125725 0.003064 0.051753 -0.068597 0.202438 -0.125291 -0.078064 0.130077 -0.244870 -0.413545 0.321133 -0.090682 -0.141021 -0.159879 -0.070177 -0.090326 -0.032525 0.144300 0.010635 -0.101267 0.145419 -0.094471 -0.098658 
visible -0.223978 0.054509 0.142194 0.022002 -0.109410 -0.092473 0.259433 -0.481104 0.238260 -0.089368 -0.001162 -0.134323 0.074170 -0.028352 0.023893 0.068401 -0.077594 -0.044666 0.072777 0.142759 0.122080 0.016402 0.019628 0.064893 0.049694 0.052162 0.277722 0.347568 0.158823 0.046606 0.394207 -0.087771 0.120686 -0.022703 -0.074754 0.163740 0.048339 -0.087318 0.034468 0.109944 0.064431 -0.027276 -0.081236 -0.022964 -0.001138 0.095291 -0.014729 0.110110 -0.156801 0.003922 
least -0.378811 0.028056 0.120735 0.193182 0.275062 -0.047847 0.082090 0.152024 -0.014663 0.059874 -0.099710 -0.060205 -0.145634 0.162638 0.221229 0.385648 0.035234 0.046490 -0.149185 0.173685 0.066166 0.130716 0.109009 -0.017921 -0.023144 -0.000245 -0.044898 -0.077110 -0.060608 -0.143544 0.224699 0.115890 0.139995 -0.081192 -0.059902 -0.077782 -0.172007 0.006511 -0.091298 -0.149188 -0.181519 -0.057150 -0.104654 -0.205640 0.003970 -0.173253 0.096637 0.001667 0.309851 0.136236 
next -0.399867 -0.070676 0.254901 0.099892 0.094111 0.068509 -0.202779 0.054826 0.160692 -0.130147 0.082579 0.072638 -0.020602 -0.170663 -0.081742 -0.042416 -0.051749 0.092870 -0.075458 -0.049015 -0.222070 -0.113051 -0.234211 -0.128571 0.085466 0.200201 -0.063026 0.053265 -0.088865 0.267898 0.074212 0.159898 -0.116356 -0.176403 0.074250 0.192232 -0.095849 -0.055450 0.117540 0.113782 0.195612 0.099669 -0.028480 0.102145 0.277308 -0.025769 0.048208 0.252087 0.164642 0.131112 
downhill -0.127640 0.099663 0.032211 0.013416 -0.185212 0.065324 0.173704 -0.204561 -0.131558 0.030969 0.051075 -0.044239 0.026013 0.030829 0.143323 0.046744 0.176836 0.125349 -0.302222 -0.100874 -0.333730 0.240045 -0.061129 -0.175797 -0.195736 0.184651 0.038636 0.237846 -0.142030 -0.067663 -0.344101 -0.140237 0.278053 -0.108798 0.079155 -0.069769 -0.066002 -0.023591 0.092593 -0.029811 -0.018345 -0.021967 0.001728 0.000186 0.152292 -0.054514 0.002010 -0.192237 -0.010337 -0.028614 
priority -0.241628 0.049221 0.077718 0.068963 -0.222706 -0.050886 0.149922 -0.003198 -0.011664 0.155606 -0.105789 0.075755 -0.045252 0.068358 0.207926 0.007989 0.174854 0.010840 -0.028121 -0.060083 -0.153666 -0.133802 -0.198449 0.027642 -0.040642 -0.038158 -0.023361 -0.056032 0.177135 -0.295510 -0.133433 0.239912 -0.128716 0.242257 0.316514 -0.181851 0.225830 0.069392 0.106694 0.183829 -0.004464 0.142928 0.064045 0.117849 -0.182942 0.020365 -0.102095 0.247945 -0.060615 0.113704 
ensures -0.384219 0.043038 0.130582 0.021393 -0.068000 -0.057088 0.281310 0.288851 -0.167381 0.163434 0.003312 -0.513362 0.133484 -0.151297 -0.111348 -0.336000 -0.128852 -0.315979 0.087499 -0.147018 -0.020021 0.062558 -0.042848 -0.019253 0.048885 0.001813 0.049098 0.024999 -0.008486 0.019529 0.024069 -0.046010 0.072679 -0.052922 0.087659 -0.142829 -0.133787 0.152184 -0.035215 0.004561 0.000611 -0.068853 -0.033574 0.041436 0.144663 -0.070116 0.095880 0.027520 0.128626 -0.052210 
long -0.173197 0.038511 0.055063 -0.084340 -0.157776 -0.487375 -0.031247 0.071339 0.017686 0.002398 -0.001071 0.030666 0.028223 -0.026630 0.061543 0.257517 -0.157028 0.236689 0.313746 -0.351095 -0.089705 -0.004993 -0.032680 -0.044732 -0.023915 0.014262 0.018372 0.126041 -0.010704 -0.008808 0.082117 -0.027263 -0.080402 0.066875 0.062080 -0.067309 -0.015826 0.049793 0.006146 -0.211436 -0.335006 0.044521 0.274089 0.227048 -0.031764 -0.049723 0.071011 -0.016794 0.077462 0.014558 
stuck -0.440151 0.033484 0.166311 -0.054901 -0.103698 -0.007338 0.284090 0.289839 -0.206559 0.018171 0.081124 -0.295451 0.182232 -0.155141 -0.064671 -0.180004 -0.002235 -0.013548 0.096608 0.172372 0.245359 0.027798 -0.221215 -0.117351 -0.087660 0.078971 0.014041 -0.203380 -0.055959 0.153159 0.055379 -0.019292 0.034383 -0.204404 0.058998 0.030232 -0.243943 0.167103 0.060358 -0.071385 -0.141398 0.136275 -0.001883 -0.027319 -0.060272 -0.015734 -0.019375 0.100167 0.028921 -0.280366 
until -0.147761 -0.002746 -0.040871 0.006241 -0.054964 -0.027238 -0.008403 0.151456 0.164620 -0.403616 -0.062744 -0.128675 0.055463 0.161388 0.067024 -0.072498 0.082273 -0.019925 -0.009740 -0.002610 0.034687 0.044372 -0.057465 -0.023339 -0.008709 -0.014288 -0.025427 0.047873 -0.022502 -0.041497 -0.059281 0.005604 -0.022720 -0.058557 -0.151480 -0.033359 0.115165 0.143595 0.185225 0.098561 -0.114496 0.033936 0.064487 -0.307194 0.050522 0.248989 0.628066 0.052336 0.012159 -0.128001 
outline -0.434168 0.058897 0.017332 -0.013699 -0.228832 0.109864 0.138459 -0.007410 -0.143496 -0.179140 -0.008249 0.068052 -0.067430 -0.143282 0.307149 -0.070689 0.184433 0.011356 -0.126610 -0.104559 -0.048961 0.042897 -0.150463 0.079926 -0.030265 0.014878 -0.142991 -0.083688 0.034046 -0.318505 0.115419 0.152033 -0.113039 -0.201641 0.077125 0.048822 0.254392 -0.016341 0.374315 -0.120362 0.136605 -0.133066 0.092387 -0.053480 0.223330 0.037894 -0.034488 0.180878 0.064291 0.047663 
shooting -0.313006 -0.041750 -0.075136 -0.453434 0.083349 0.076655 -0.191810 -0.082662 0.081347 0.144212 -0.197027 -0.094715 0.052480 0.004949 0.163446 0.085881 0.076946 -0.225171 0.098759 0.088694 -0.145574 -0.125905 -0.074410 -0.206818 0.029363 -0.000124 0.180921 -0.080212 -0.191493 0.092998 0.020255 -0.249764 -0.099172 0.021693 -0.044361 0.004077 -0.021884 0.165104 0.006769 -0.007420 -0.029880 -0.135982 -0.152024 0.028925 -0.196839 0.128743 0.014442 -0.225904 0.193008 0.249010 
only -0.170528 0.156856 -0.084899 -0.006296 0.148586 -0.059596 0.048022 -0.041607 0.061548 0.092370 0.183276 0.206530 -0.227649 0.112380 0.162736 -0.412609 0.043447 -0.005835 0.030427 -0.262673 0.210824 0.299435 -0.113601 0.130284 0.038860 0.046672 0.173151 -0.059072 -0.207125 -0.138355 0.073072 -0.022187 -0.096639 -0.151609 -0.139217 0.098552 -0.029809 0.030182 -0.226802 -0.165367 0.057846 0.088389 0.046350 0.139559 0.004608 0.197422 0.106769 -0.025790 0.052149 0.079022 
mauls -0.066143 0.144390 -0.110847 0.060996 0.173356 -0.069958 0.074267 -0.019214 -0.004173 -0.035022 0.035700 0.060430 0.089515 -0.090078 0.049754 -0.201528 0.070057 0.063818 0.479498 0.382244 -0.522208 0.305564 -0.099850 0.032112 0.002185 -0.091450 -0.095187 -0.047087 -0.022804 -0.126246 0.106064 0.116147 0.096165 0.018009 -0.118478 0.090244 0.021973 0.014005 -0.081776 -0.009970 -0.020459 0.040439 -0.016805 -0.005453 -0.017384 -0.003137 0.008280 -0.031029 -0.002628 0.064643 
few -0.341068 0.116057 0.058068 -0.207677 -0.169382 0.069584 0.024691 -0.084442 -0.046920 0.126374 -0.077815 0.031525 -0.041777 0.039659 0.263033 -0.014878 0.180028 -0.074139 -0.147183 0.017960 -0.338522 -0.188912 0.056780 -0.215608 -0.008911 0.005986 -0.203406 -0.147714 0.119636 -0.145690 0.197214 -0.238369 -0.288908 0.070273 -0.065044 -0.015191 0.018711 -0.311664 0.003739 -0.048803 0.087407 0.008134 -0.009693 -0.026183 0.145090 0.045593 0.012082 0.115763 -0.076614 -0.207222 
therefore -0.284475 0.074981 0.127614 -0.064869 -0.206154 -0.184605 0.268185 -0.258199 0.243837 -0.005174 -0.006032 -0.061008 0.066620 -0.016897 0.023576 0.097828 -0.053458 0.030929 0.037258 0.198866 0.056561 -0.038320 -0.003817 0.117053 0.070379 0.042001 0.311702 0.340980 0.177338 0.019335 0.295431 0.018784 0.033491 0.129183 0.094111 -0.206362 0.043536 0.137923 -0.044352 0.136360 0.148128 0.025132 -0.107045 -0.001784 0.053277 0.152703 -0.020845 -0.209749 -0.274871 0.005835 
6 -0.169861 0.037574 0.045341 -0.077196 -0.150766 -0.414012 -0.003389 0.079706 0.052641 0.015321 -0.001474 0.038716 0.025909 -0.023736 0.044830 0.235392 -0.148306 0.227303 0.277931 -0.296150 -0.091064 -0.017951 -0.038915 -0.026581 -0.009841 0.009995 0.043298 0.143069 -0.001824 -0.009277 0.054658 -0.011981 -0.100280 0.108120 0.071829 -0.079405 -0.011095 0.061006 0.005286 -0.244836 -0.383923 0.050883 0.332428 0.299580 -0.040654 -0.053208 0.093306 -0.003605 0.084719 0.019135 
forward -0.337768 0.169877 0.024949 0.007918 -0.282039 -0.137202 -0.062904 0.102261 0.198667 0.078138 -0.048100 0.025412 0.012079 0.017200 -0.029475 0.132457 -0.090535 0.016403 -0.012358 0.221593 -0.025646 -0.029747 -0.019878 0.262323 0.034407 -0.353506 0.038735 0.120667 -0.046848 0.025402 -0.207194 -0.076282 0.030072 0.014811 0.058081 -0.073082 0.113017 0.062692 -0.051457 -0.240269 0.329661 0.085174 0.184391 -0.115927 -0.084775 -0.263548 -0.058764 -0.006190 0.196890 0.276963 
legally -0.327486 0.029565 0.064049 -0.143885 -0.123579 -0.126654 0.120714 0.160890 0.113256 -0.236967 -0.005110 0.068895 -0.010518 -0.192957 0.014043 0.088402 -0.061592 0.150315 -0.103951 0.090373 -0.014526 0.067622 -0.247496 0.166478 0.198726 -0.051037 0.033219 0.068595 0.145488 0.096883 -0.228464 0.157641 -0.142116 0.059392 -0.005365 -0.040017 0.245404 0.294181 -0.088077 0.182291 -0.020349 0.121741 -0.113271 0.046685 -0.214186 0.215988 -0.087127 -0.125357 -0.108817 -0.270492 
wait -0.130703 0.038560 -0.020945 -0.018016 -0.045167 -0.041716 -0.015954 0.167512 0.206819 -0.459182 -0.055998 -0.191465 0.087781 0.305102 0.032488 -0.087307 0.144649 -0.005480 -0.014322 -0.032188 -0.004924 0.024935 -0.122557 -0.009469 0.002478 -0.003426 -0.013645 0.017920 -0.012899 0.053888 -0.040747 0.013308 -0.015279 -0.062200 0.004327 0.016839 0.105122 0.047525 -0.101329 0.085621 -0.098332 -0.085709 0.057781 -0.268933 0.030728 0.218651 0.572469 0.055928 0.025336 -0.106326 
port-au-prince -0.495112 0.002826 0.128916 -0.093739 -0.109995 -0.185338 0.027408 0.165526 0.256261 -0.154895 0.063031 0.089013 0.001776 -0.178566 -0.041175 0.076509 -0.126660 0.138498 -0.079799 0.126058 -0.129087 -0.090726 -0.107231 0.031041 0.155491 0.135846 0.089999 0.115574 -0.052046 -0.069278 -0.135748 0.315644 -0.079473 0.000856 -0.045274 -0.201306 -0.016124 0.196735 -0.134014 0.240063 0.306549 -0.106954 -0.004444 0.307263 -0.039098 0.027287 0.125950 0.025380 0.063485 -0.228667 
more -0.274914 0.065630 0.135865 -0.021926 -0.158576 -0.149388 0.274975 -0.397167 0.271190 -0.063275 -0.006172 -0.107260 0.076542 -0.030329 0.026441 0.096257 -0.084450 -0.012040 0.069511 0.161242 0.101939 0.004083 -0.085665 0.076260 0.062249 0.038517 0.275035 0.304375 0.145300 -0.011065 0.287541 -0.036825 0.098708 0.040771 0.064396 -0.095201 0.054798 0.158890 -0.037672 0.140965 0.118061 0.152241 -0.098199 0.001123 -0.213725 0.114518 -0.004993 0.203344 -0.193124 0.032645 
buy -0.152661 0.211898 -0.113713 0.030712 0.152160 -0.043274 0.028217 -0.037437 0.042411 0.060674 0.178178 0.138561 -0.141100 0.034441 0.180746 -0.338170 0.049664 -0.013381 0.042027 -0.236062 0.196996 0.237735 -0.083643 0.097009 0.044232 0.102019 0.160900 -0.085419 -0.132681 -0.018135 0.055777 -0.070109 -0.122578 -0.142509 -0.132029 0.099186 -0.000469 0.100195 0.072523 -0.255340 0.050143 -0.183724 0.061840 0.265909 -0.213902 0.331073 0.077362 -0.117283 -0.086689 0.097605 
collapse -0.270781 -0.135604 0.069767 0.100944 0.074209 0.011307 -0.049901 0.014146 0.040972 -0.081451 0.088729 0.036529 0.013292 -0.057736 -0.142316 0.011804 -0.010854 0.095522 -0.080378 -0.035401 -0.133988 -0.133341 -0.262867 0.314962 0.137019 0.042187 -0.201171 -0.003591 -0.203358 0.167226 0.063405 -0.149478 -0.023574 -0.081310 0.050519 0.358944 -0.024370 0.038300 -0.104640 0.015735 -0.200539 0.050954 -0.055545 -0.079788 0.427264 0.050778 -0.055440 0.126310 0.037871 -0.264522 
sending -0.404987 0.108690 -0.159058 -0.081128 0.068721 -0.194766 0.046401 -0.032281 0.137196 0.111798 -0.067244 0.024606 0.206700 0.040700 -0.098452 -0.151025 -0.171055 0.184886 -0.137511 0.037344 0.080267 -0.122938 0.002423 0.068234 -0.225992 0.157854 -0.217657 0.120086 0.132259 0.027504 -0.062777 0.280991 0.087570 0.134772 0.250350 -0.221370 0.219607 0.119713 -0.042778 -0.096606 -0.022677 0.350824 -0.255083 -0.029369 0.031178 0.026643 0.027693 -0.121291 0.072642 -0.014414 
funds -0.382756 0.009241 -0.055349 -0.125797 -0.001770 -0.174308 0.030678 0.003934 0.186764 0.149661 0.160492 0.147766 -0.155571 0.177342 -0.019967 -0.229752 -0.100382 0.055898 -0.042153 -0.039788 0.106610 0.126642 -0.004232 0.069609 0.031049 -0.039494 0.012757 0.037695 -0.003807 -0.143313 -0.028923 0.067860 0.123264 0.146191 0.208372 -0.225707 -0.074430 0.001255 -0.229825 0.132011 -0.063953 0.502430 -0.147026 -0.096083 0.132982 -0.041056 -0.064014 -0.064045 0.150003 -0.274066 
company -0.171687 0.327114 0.009315 0.135619 -0.222070 0.159579 -0.259102 -0.025872 0.035592 0.145921 0.225580 -0.137888 0.069247 -0.114416 0.230041 0.041184 0.094555 -0.059667 -0.040596 -0.095152 0.011045 0.030421 -0.138246 0.032705 0.061069 0.165680 -0.038597 -0.154144 0.049426 -0.331922 0.128736 0.016721 0.087845 0.204881 0.113860 0.087568 0.062874 -0.110597 0.064756 -0.108256 -0.193320 -0.004259 -0.161412 0.135742 0.151186 0.139289 -0.122885 -0.059957 -0.286827 0.036288 
transferring -0.287829 0.223689 -0.075248 0.238773 0.459459 -0.129144 0.190102 0.137876 -0.023051 0.077067 -0.130765 -0.089031 -0.148083 0.138789 0.361174 0.399508 0.035144 -0.015261 -0.092131 0.151656 0.116153 0.081080 -0.081612 0.022017 0.019955 0.030990 0.088288 -0.030778 0.034938 -0.126834 0.009165 0.029736 0.025061 -0.003411 -0.105832 0.094541 -0.142418 0.010366 -0.029238 0.075175 0.124853 0.087476 0.001017 0.186141 -0.081041 0.041751 0.056879 0.063865 -0.087246 0.051534 
else -0.332176 -0.086647 -0.197815 0.084992 -0.057371 -0.039898 0.008122 -0.040955 -0.016273 -0.014018 0.111818 -0.090894 0.103056 0.031845 -0.130074 0.069958 -0.062255 0.085676 -0.149425 0.023549 -0.063526 0.257924 0.043369 -0.106197 0.088569 -0.015898 0.119007 -0.229062 -0.018474 0.014205 0.212247 -0.054622 -0.382193 -0.037617 -0.029250 -0.038663 0.198445 -0.036868 0.077728 0.173742 -0.091090 0.013578 -0.115673 0.174359 0.006522 -0.518980 0.201760 -0.090466 -0.196096 0.043351 
sarkozy -0.101366 -0.142068 -0.124547 0.194419 -0.141623 -0.001794 0.007898 0.015157 0.021051 0.049681 -0.179543 0.103472 0.002082 -0.048755 0.231642 -0.117982 0.125138 -0.111237 0.156017 -0.020739 0.066307 -0.129237 -0.053718 -0.084401 -0.104077 0.015792 0.110507 -0.027029 0.286159 0.008471 -0.086554 0.070733 0.181266 -0.153906 0.096295 0.029417 0.058979 -0.104843 -0.083495 0.325925 -0.305377 -0.078874 -0.029719 0.307788 0.048745 -0.175954 0.079785 -0.088446 0.389146 0.015773 
released -0.486436 -0.322176 -0.133427 0.327066 -0.062107 -0.021669 -0.092223 -0.034398 0.068743 0.086509 -0.030027 0.100042 0.029847 0.059018 -0.038672 -0.133366 0.043628 0.015639 0.020633 -0.077590 -0.036868 0.072367 -0.253711 -0.074390 0.012828 -0.016297 0.110090 -0.034765 -0.018214 0.309976 0.066672 -0.037973 -0.066966 -0.033331 -0.040898 0.033282 -0.066236 -0.134675 0.207824 -0.039114 -0.133962 -0.086926 -0.059915 -0.147971 0.208779 0.033032 -0.052246 -0.489522 -0.032025 0.157983 
cargo's -0.290905 -0.081956 0.022130 -0.083578 -0.159172 -0.129594 0.163529 0.226138 0.101637 -0.200500 -0.026984 -0.011341 0.001677 -0.236510 0.063186 -0.003091 -0.128531 0.031165 -0.030616 0.197986 0.106271 0.008436 -0.174511 0.037968 0.013134 0.037042 0.052148 0.003835 -0.021736 -0.059811 -0.122857 0.181942 -0.100415 -0.010273 0.056487 -0.304503 -0.193569 0.351079 0.303451 -0.062077 -0.144307 0.303635 -0.082664 -0.012572 -0.101243 0.071304 -0.096913 0.027520 -0.170659 0.036363 
particular -0.215888 -0.205883 -0.282770 -0.037860 -0.010956 0.083257 -0.088052 -0.100417 -0.110382 0.068289 0.149000 -0.173624 0.013888 0.111996 -0.170134 0.204493 0.086146 -0.095070 0.168345 0.006678 0.023817 0.104982 -0.074578 -0.089687 -0.035693 -0.008787 0.292369 0.049478 -0.060652 0.043599 -0.008075 0.229203 -0.122323 0.058192 -0.323436 -0.202098 -0.001191 0.033149 0.361809 -0.090789 0.140491 0.070665 0.131177 -0.055365 0.172274 0.142714 -0.101715 -0.204151 0.066072 0.034278 
he -0.251941 0.041792 0.143812 0.084779 -0.051189 -0.026598 0.235152 -0.571995 0.247298 -0.121815 -0.018954 -0.173749 0.075251 -0.024770 0.026498 0.060105 -0.096406 -0.114629 0.186403 -0.063578 0.163237 0.064700 -0.013652 -0.098833 0.022809 -0.101079 -0.191800 -0.410301 -0.147783 0.048050 -0.282656 0.083209 0.020491 0.036227 0.020031 0.062309 -0.064306 -0.009966 0.057888 0.034673 0.025891 0.030010 0.000877 0.081520 -0.013336 -0.035835 0.080296 0.030421 0.077907 0.036128 
12 -0.122000 0.027900 0.049833 -0.033140 -0.106738 -0.622049 -0.210883 -0.037964 -0.241409 -0.074456 0.007896 -0.052072 0.029143 -0.037753 0.141504 0.195833 -0.094541 0.138105 0.299403 -0.406134 -0.014735 0.071482 0.032167 -0.126185 -0.077144 0.027462 -0.096762 -0.036363 -0.036948 0.003061 0.143073 -0.078966 0.054723 -0.143610 -0.033346 0.027779 -0.023221 -0.030127 -0.006286 0.049117 0.041845 -0.039312 -0.099937 -0.163641 0.030811 -0.007070 -0.059715 -0.010346 0.011785 -0.026874 
join -0.314285 0.226302 -0.075965 0.230843 0.448124 -0.134844 0.188374 0.135914 -0.019531 0.062674 -0.125511 -0.082658 -0.142047 0.130988 0.360181 0.394991 0.041488 -0.009160 -0.095739 0.168310 0.125918 0.083425 -0.090159 0.020622 0.017303 0.038835 0.096706 -0.031719 0.033706 -0.104151 0.025932 0.027272 0.034097 -0.028570 -0.100663 0.135671 -0.178703 -0.008473 -0.026473 0.066923 0.123186 0.102154 -0.010929 0.182557 -0.086869 0.017385 0.089174 0.012043 -0.039448 0.079791 
knucklehead -0.448548 0.042842 0.128313 0.115544 0.202135 -0.021697 0.143303 0.197340 -0.081523 -0.003712 -0.039617 -0.069670 -0.053485 0.097409 0.199827 0.326030 0.055265 0.089638 -0.083530 0.243323 0.199512 0.129311 -0.206480 -0.080106 -0.054337 0.017069 -0.047731 -0.139376 -0.080765 0.143971 0.165289 0.025327 0.178072 -0.121121 -0.040002 0.267697 0.013867 0.007181 0.142281 -0.023772 -0.109237 0.279588 -0.007886 -0.059197 -0.249748 -0.055351 0.062056 0.102956 0.136077 -0.216268 
capitalised -0.174087 -0.011596 -0.124341 -0.011176 -0.008982 0.064937 -0.000533 -0.040999 -0.098098 -0.062836 0.146823 -0.090765 0.016611 -0.041977 0.009418 0.104848 0.117908 -0.006274 0.030741 -0.058950 -0.050560 -0.234585 -0.058844 0.461845 0.146437 0.109561 -0.259254 0.023166 -0.356968 0.092754 0.096210 -0.059463 0.085939 -0.003526 0.068444 0.087243 -0.105738 0.134314 -0.078848 0.323594 -0.300468 -0.051279 -0.038523 0.019156 0.142223 0.024137 0.119808 0.094949 -0.123434 -0.264033 
anticipate -0.265409 -0.031853 0.172126 0.125113 0.036794 -0.001474 0.060251 -0.303458 0.182388 -0.032518 -0.025867 -0.054712 0.029083 0.010965 -0.046507 0.002939 -0.040820 -0.057672 0.148380 -0.128959 0.028117 -0.003822 -0.064589 -0.099563 0.014951 -0.130927 -0.282874 -0.484400 -0.207378 0.117088 -0.454153 0.152997 -0.121230 0.149824 0.087380 0.106447 -0.076179 -0.082890 0.105096 -0.065882 -0.071812 -0.020806 0.048226 0.042548 0.115294 -0.015423 0.020355 -0.168345 0.012867 0.037021 
official -0.209885 0.275929 -0.135083 0.082328 0.069831 -0.012610 0.110183 -0.041956 -0.150958 -0.102820 -0.146490 0.147493 -0.096473 -0.017211 -0.124702 -0.081123 0.027522 0.011747 0.101488 -0.069580 -0.015561 -0.109897 -0.047942 -0.086623 0.241125 0.351773 0.188833 -0.141440 0.117810 0.002631 -0.086899 -0.218935 -0.010311 0.266849 -0.175644 0.042694 -0.044642 0.110245 -0.142686 -0.074287 0.151418 0.099203 0.158621 -0.219057 -0.178077 -0.300580 0.116322 -0.111072 -0.034869 -0.104571 
lead -0.491056 -0.038329 -0.082208 -0.216022 0.056547 0.130682 -0.057640 -0.002041 -0.138028 -0.306900 0.046306 -0.067817 -0.150726 -0.125809 -0.081433 0.199046 0.037823 -0.179865 0.214449 -0.013720 0.070884 0.004700 -0.218693 -0.013312 0.098614 0.166652 0.179318 0.055863 -0.042400 0.146411 -0.134677 0.311835 0.260122 -0.001474 -0.229538 -0.220661 0.209007 -0.172938 -0.054478 -0.129709 -0.070851 -0.012810 0.002615 -0.060084 -0.174760 -0.058351 -0.046418 0.002464 0.146327 0.013979 
will -0.094015 0.086091 -0.078757 0.023418 0.070519 -0.011232 0.084012 -0.014596 -0.053628 -0.121631 0.077128 0.012578 0.044910 -0.120591 0.068920 -0.099385 0.016302 0.126405 -0.137270 -0.130228 -0.039084 -0.349048 0.133810 -0.319653 0.156980 -0.578457 0.187079 -0.032081 -0.193415 0.102374 0.181950 0.195769 0.292559 0.051451 0.039771 -0.058740 0.009916 -0.018751 0.026057 -0.095202 -0.003436 0.043324 -0.021171 0.034042 -0.051085 -0.067674 0.040505 -0.051574 -0.070621 0.004563 
anywhere -0.155695 0.361081 -0.106138 0.180845 0.026119 0.057734 -0.302938 0.051511 0.171841 0.024810 0.207677 -0.141358 0.111907 -0.202790 0.128990 0.018027 -0.090463 -0.082914 0.054831 0.009367 0.137978 0.066917 -0.132666 -0.079536 0.056634 0.073589 0.111665 -0.080877 0.132066 -0.304921 -0.108825 -0.139116 0.118146 0.059219 -0.093384 0.075254 0.095698 -0.040428 -0.017053 -0.108148 -0.229346 -0.055750 -0.115551 -0.137849 -0.245960 -0.123778 -0.176046 -0.247518 0.005144 0.041814 
were -0.430523 0.118474 -0.018329 -0.023183 -0.072883 0.049945 0.048930 0.012522 -0.165766 -0.288086 -0.218264 0.128541 -0.209958 -0.067257 -0.212913 0.034861 -0.092744 -0.042309 0.036563 -0.038832 -0.033000 0.044212 -0.116663 -0.091422 0.349609 0.350283 0.119241 -0.225673 0.054402 0.033044 0.044665 0.076936 0.357276 0.197119 -0.074517 -0.012201 0.163323 0.082669 -0.053904 -0.136473 -0.145066 -0.018831 -0.090695 -0.087997 -0.075821 0.051901 0.063850 -0.017959 0.074316 -0.211654 
aid -0.357960 0.160633 -0.228963 -0.032607 0.178264 -0.158814 0.042881 -0.061125 0.086112 0.104811 -0.065130 0.017604 0.223309 0.035413 -0.089116 -0.195959 -0.159087 0.177057 -0.117390 0.007381 0.107053 -0.139725 -0.055779 0.053070 -0.255553 0.181329 -0.229954 0.119506 0.142095 -0.164081 -0.067296 0.236845 0.070735 0.096467 -0.126617 0.121681 0.210152 -0.021919 -0.197762 -0.107640 -0.020318 0.288489 -0.253888 -0.039162 0.112317 0.020123 0.016637 -0.162444 0.097352 0.033263 
guide -0.252092 -0.013131 -0.061954 -0.257509 0.022145 0.004111 -0.053926 -0.008879 0.071715 -0.004622 0.059781 -0.018002 -0.133498 0.029000 0.081767 -0.004756 -0.055295 -0.158189 -0.011232 0.074578 -0.065094 -0.064038 0.107026 -0.194867 -0.015389 -0.040520 -0.312476 -0.004218 0.321839 -0.061935 0.019116 -0.089717 0.178020 -0.135032 0.020258 0.104643 -0.071792 -0.083382 0.046554 -0.036118 -0.001696 -0.039285 0.323432 0.088343 0.059660 -0.222235 0.060403 0.056562 -0.552042 -0.001220 
want -0.235167 0.270473 -0.121902 0.080603 0.024010 -0.086026 -0.046762 0.129753 0.195548 -0.268389 -0.019575 -0.107659 0.095561 0.146106 -0.008144 -0.064998 0.052176 -0.012154 0.059248 0.040106 0.059582 -0.008063 -0.024795 0.009315 -0.019875 -0.101611 0.077321 0.102095 0.009858 -0.070219 -0.201663 -0.103194 -0.150126 -0.062208 -0.154934 0.097123 0.070657 0.001227 -0.052858 0.144439 -0.087124 0.076239 0.134525 -0.337993 0.115682 0.223294 0.555751 0.080996 0.054641 0.168712 
up -0.162969 0.016196 0.159456 -0.049297 -0.079734 -0.060966 0.120364 0.153177 -0.024995 0.119288 0.087352 0.058750 0.124773 0.084389 -0.098250 0.019541 0.095538 0.249287 0.133988 0.300458 0.286004 -0.049520 -0.108642 -0.187695 -0.121560 0.060366 0.038256 -0.173630 -0.186267 0.043225 0.018709 -0.201748 0.206381 0.016691 0.133230 -0.048148 0.330817 0.088173 0.084221 0.239420 -0.026849 0.098598 0.307638 0.020365 -0.121244 0.132612 -0.075831 -0.034501 -0.129419 0.096422 
trial -0.454753 -0.056813 0.208752 0.204806 0.243010 -0.007094 -0.035482 0.068760 0.056709 -0.022664 -0.028550 -0.014030 -0.059054 -0.018270 -0.037321 -0.042616 -0.022794 -0.039631 -0.042099 -0.187898 -0.214297 -0.027760 0.085237 0.020607 0.064800 -0.050630 -0.078588 0.166414 -0.037708 0.177620 -0.097936 -0.033802 -0.168940 0.041256 0.200914 -0.010785 0.373722 -0.122582 0.139964 0.031286 -0.143674 -0.059793 0.062378 -0.190641 0.107608 0.126542 -0.431233 -0.183549 -0.273723 0.031323 
boat's -0.253161 0.009448 0.105261 -0.118529 -0.150193 -0.103330 0.236642 0.240042 -0.010804 -0.061565 0.042114 -0.147972 0.059723 -0.178644 -0.023039 -0.065595 -0.084020 0.034305 -0.013387 0.198006 0.099295 -0.021597 -0.245094 0.044335 -0.013363 0.065573 0.089727 -0.115810 -0.002126 -0.000503 -0.070797 0.198849 -0.117714 -0.094228 0.201191 -0.340726 -0.365696 0.361583 -0.032445 -0.124539 -0.159752 0.037775 -0.087292 -0.031422 0.075180 0.013709 -0.104738 0.087683 -0.093253 0.016159 
an -0.142134 -0.007450 0.160119 0.031071 -0.004898 0.023182 0.042475 0.106775 -0.056482 0.086815 0.091060 0.045559 0.125157 0.071514 -0.108013 -0.021545 0.123405 0.230141 0.132615 0.227988 0.244760 -0.064880 0.064900 -0.252847 -0.146652 0.111150 -0.031436 -0.189774 -0.206096 -0.004517 0.100608 -0.230719 0.209202 -0.083724 -0.076643 0.055804 0.328687 -0.046821 -0.017125 0.220073 -0.011952 0.085434 0.412462 0.019818 -0.067550 0.184112 -0.074292 0.012501 -0.059737 -0.138837 
have -0.243234 0.369767 0.023626 0.138430 -0.345335 0.162999 -0.238061 -0.013702 -0.005412 0.121228 0.025816 -0.080717 -0.014157 0.010201 0.076881 0.079687 0.029462 -0.065691 -0.061697 0.025695 -0.024045 0.095218 -0.122366 0.010263 -0.127168 -0.247172 -0.104817 0.024197 0.021966 -0.272878 0.077340 0.047107 -0.067682 0.015241 0.199581 -0.101398 0.014363 -0.038206 0.140110 0.001698 0.047076 -0.064799 0.088929 -0.157046 -0.197034 -0.148327 -0.108664 -0.203712 0.136960 0.348692 
made -0.136455 -0.131224 -0.116026 0.207625 -0.205456 0.015589 0.042129 -0.001567 -0.019810 0.080174 -0.196407 0.120597 -0.007704 -0.026707 0.293442 -0.125106 0.198934 -0.101999 0.125140 -0.053217 0.016964 -0.156825 -0.007067 -0.074226 -0.126306 0.018547 0.069548 -0.046273 0.320748 0.156570 -0.062542 0.137241 0.099212 -0.073572 0.015323 -0.013065 0.118308 0.020495 -0.203950 0.324976 -0.226901 0.024214 0.001761 0.257710 -0.117202 -0.163487 0.023075 -0.066546 0.325668 0.003507 
any -0.277085 -0.062547 0.184476 0.154444 0.055098 -0.012984 0.030119 -0.207053 0.171338 0.013422 -0.058951 -0.023100 -0.001439 0.031643 -0.030511 0.002235 -0.027588 -0.050227 0.126016 -0.137363 -0.028740 -0.028922 -0.051040 -0.081960 0.019849 -0.138987 -0.254481 -0.424387 -0.169175 0.030699 -0.458772 0.170753 -0.143994 0.189900 0.017766 0.099858 -0.009949 0.026488 0.140687 -0.052961 -0.085388 0.126999 0.067064 0.034946 -0.156077 0.037045 -0.035444 0.324852 -0.091995 0.062795 
film -0.393263 -0.194190 -0.129381 0.156904 -0.195396 0.024901 0.048507 0.081135 0.016181 -0.188790 -0.146907 0.097826 -0.029142 -0.201516 0.278228 -0.082566 0.071951 -0.070845 0.036518 0.003677 0.062850 -0.037646 -0.146882 0.087923 0.013769 -0.011632 -0.026677 -0.053064 0.036144 0.279319 -0.034688 0.001036 0.104454 -0.304100 0.137120 -0.018691 0.187277 -0.064097 -0.468866 -0.159735 0.093641 -0.085072 0.030747 -0.018941 -0.168111 0.010700 -0.072500 -0.207786 -0.030003 -0.008290 
1/2 -0.153825 0.039583 0.040008 -0.044338 -0.127005 -0.591995 -0.148719 0.001251 -0.152232 -0.051505 0.008804 -0.021538 0.034311 -0.043555 0.126308 0.244180 -0.130201 0.195946 0.353098 -0.456905 -0.050646 0.051067 0.053668 -0.116361 -0.068618 0.026436 -0.065275 0.033011 -0.033153 0.006236 0.154794 -0.078097 0.003380 -0.081273 -0.068874 0.067012 -0.029553 -0.062522 -0.004132 -0.075681 -0.146156 -0.058163 0.064596 -0.012460 0.035413 -0.035204 -0.007058 0.014258 0.055564 -0.026858 
sell -0.188365 0.220564 -0.149898 0.065161 0.194645 -0.231977 0.172471 0.056158 0.174716 0.014099 0.059644 0.286154 0.217500 -0.222185 -0.263179 0.083702 0.411374 -0.399236 -0.045155 -0.161470 0.043262 0.052663 -0.028174 -0.079923 -0.047579 0.043309 -0.046822 -0.026719 -0.028754 -0.044020 0.032952 -0.147234 -0.049134 -0.127599 -0.139200 0.164689 -0.065008 -0.111756 0.012604 0.010093 -0.025659 -0.067127 0.038346 -0.052889 0.015442 -0.021144 -0.089055 -0.018099 0.093156 0.052890 
maturing -0.399271 -0.057822 0.237158 0.130913 0.070289 0.052628 -0.212116 0.051081 0.183576 -0.091830 0.084991 0.080189 0.001948 -0.154473 -0.101730 -0.058570 -0.036581 0.106820 -0.030571 -0.073525 -0.199645 -0.122539 -0.222271 -0.138807 0.089913 0.250332 -0.022082 0.093182 -0.094973 0.239477 0.062823 0.253311 -0.054598 -0.200273 0.022745 0.163189 -0.217461 0.050201 0.118498 0.155974 0.287467 0.021838 -0.026780 0.068599 0.185912 -0.062325 0.111282 0.195250 0.068470 -0.021465 
vista -0.256148 -0.046344 0.187585 0.111294 0.078344 -0.215922 -0.243457 -0.160704 -0.140382 -0.074853 0.022394 -0.002776 -0.002700 0.005508 -0.075791 -0.244392 0.172632 -0.152348 -0.254702 0.318717 -0.014880 -0.064460 -0.073278 0.077758 0.069345 -0.018771 0.104810 0.116124 0.000944 0.116801 -0.073148 0.052537 -0.109151 0.177191 0.083906 0.118857 0.000500 -0.058312 0.133126 -0.218354 -0.344650 0.027515 0.295014 0.261356 0.048742 -0.041422 0.076455 -0.047541 0.061213 0.060486 
compared -0.277833 0.040987 0.149340 -0.032447 -0.061906 0.127935 0.043489 0.028374 -0.210634 0.078379 0.063612 0.025744 0.152589 0.051644 -0.047998 0.039222 0.359360 0.245422 0.188802 0.040283 0.253277 0.083482 -0.111597 -0.111898 -0.014421 -0.132337 -0.109784 0.053145 0.159467 -0.136249 -0.053104 -0.178987 0.036319 0.081320 0.164422 0.138541 0.100067 -0.178607 0.232374 -0.117428 0.113645 0.098032 -0.321495 0.198617 -0.061665 -0.024425 0.268561 0.001137 -0.060945 -0.056532 
court -0.252337 0.309368 -0.099696 0.071240 -0.027618 0.037552 0.140940 -0.073991 -0.229313 -0.071384 -0.160170 0.155469 -0.121684 0.013047 -0.084269 -0.068880 0.087084 0.024803 0.050622 -0.091476 -0.065704 -0.096565 -0.254819 -0.076671 0.217497 0.335671 0.121099 -0.161108 0.118503 -0.408190 -0.002831 -0.117848 0.006409 0.279151 0.014668 0.120488 0.004565 -0.095235 0.031607 -0.076522 0.115422 -0.011454 0.083531 -0.159996 0.033861 -0.146412 0.074192 -0.055746 -0.003112 0.033695 
recovery -0.335015 0.291003 -0.128716 0.088387 0.018742 -0.019241 -0.041365 -0.032397 -0.061984 -0.053736 -0.280834 0.097194 -0.040411 0.070152 -0.239826 -0.065110 -0.140119 -0.023656 0.076953 0.037610 0.082299 -0.006334 -0.120326 -0.012414 -0.230231 -0.179773 -0.058401 0.205651 -0.190332 -0.196511 -0.045926 -0.033050 -0.173731 -0.305610 -0.130999 0.109830 -0.140347 -0.024031 -0.037010 0.174755 -0.024737 -0.069682 -0.066065 0.338276 -0.088910 0.107587 -0.139267 -0.034833 -0.191508 -0.204150 
piracy -0.069348 0.063338 -0.018712 0.001279 -0.053123 -0.065634 -0.031363 0.161882 0.261380 -0.460268 -0.081355 -0.279233 0.155290 0.589830 -0.002603 -0.145089 0.304180 -0.004094 0.020116 -0.112954 -0.069341 -0.020858 -0.043266 -0.035975 0.002565 0.081750 -0.011326 -0.056669 -0.007030 -0.015148 0.092741 0.001765 0.065236 0.032390 -0.040929 0.012730 -0.053801 0.045616 -0.002097 -0.044616 0.031007 -0.037029 -0.041155 0.123005 0.005153 -0.075717 -0.182875 0.021365 -0.005897 -0.128324 
pay -0.333371 0.190373 -0.235392 0.043516 0.217422 -0.138779 0.086988 -0.043171 0.032098 -0.002828 0.109545 0.030322 0.099947 0.005419 -0.037543 -0.156927 -0.046065 0.089958 0.023132 -0.008563 0.081800 -0.149673 -0.052380 -0.034765 -0.049623 0.099475 -0.108388 0.111377 0.278407 -0.100545 -0.196940 -0.145879 -0.092156 0.072437 -0.047358 -0.010319 -0.120766 -0.061728 -0.179290 0.106291 0.078472 0.331154 0.053259 -0.048484 0.123183 0.217056 -0.252890 -0.096869 0.424801 -0.113337 
holds -0.294137 0.001930 0.034067 -0.094137 -0.047038 0.029182 0.068034 0.114741 -0.013209 -0.359415 0.001151 0.031410 -0.027306 -0.265705 0.066558 0.051662 -0.030195 0.115350 -0.138841 -0.005223 0.015958 0.161353 -0.222572 0.128828 0.206687 -0.048772 -0.080918 0.007341 0.176474 0.163722 -0.133726 0.160051 -0.100642 -0.081037 -0.092226 0.028614 0.304851 0.207976 -0.073699 0.199703 -0.065472 -0.066180 -0.195932 0.063688 0.029492 0.205431 -0.264703 0.069324 -0.059617 -0.287809 
same -0.261974 0.041541 0.031519 -0.093852 -0.126737 -0.163724 0.055683 0.197618 0.249397 -0.284414 -0.023279 -0.069555 0.049138 0.123447 -0.013166 0.016399 0.013718 0.052661 -0.025857 0.087387 -0.014288 -0.013093 -0.365397 0.062439 0.041375 -0.036309 0.067623 0.064866 -0.003422 -0.002278 -0.144377 0.071536 -0.063419 0.032909 0.121679 -0.241055 0.113008 0.367434 0.002116 0.097482 -0.060775 0.081095 0.055472 -0.170266 -0.054335 0.190254 0.404010 0.084990 -0.029582 -0.201218 
blagojevich -0.354637 0.025826 0.114182 0.055653 -0.005453 -0.050206 0.230162 0.255187 -0.136563 0.171140 -0.018568 -0.499843 0.092225 -0.117641 -0.113982 -0.312867 -0.146746 -0.361127 0.087209 -0.249528 -0.099238 0.076774 0.011234 -0.002601 0.091400 -0.043691 0.024163 0.123458 -0.013218 0.050928 0.007117 -0.108022 0.117617 0.017001 -0.020785 0.152279 0.104044 -0.103599 0.096528 0.093621 0.071330 0.088667 -0.000875 0.070368 -0.109185 -0.049326 0.112484 -0.015606 0.118034 -0.041203 
that -0.405823 0.264038 -0.047855 0.055911 -0.160537 0.063289 -0.018359 -0.033421 -0.210653 -0.170933 -0.398048 0.177511 -0.255875 0.088700 -0.387238 0.028227 -0.157764 -0.072907 0.072519 -0.007316 -0.018965 0.061504 -0.034451 -0.094112 0.186669 0.110554 0.050230 -0.100797 -0.041662 -0.057926 0.077509 -0.007318 0.210431 0.061935 0.002846 0.026133 -0.052834 0.008022 0.040410 0.016845 -0.104371 -0.116516 -0.049957 0.086941 -0.036151 0.104610 0.006591 0.013239 -0.034992 -0.369111 
parts -0.488987 -0.051892 0.141608 0.059644 0.099577 0.032138 -0.067656 0.038696 0.047629 -0.240091 0.054987 0.056932 -0.037118 -0.163330 -0.069749 -0.030949 -0.027673 0.038952 -0.060501 -0.134002 -0.170911 -0.010370 -0.221850 0.251277 -0.553825 -0.082975 0.214695 -0.249342 0.093561 0.189916 0.101108 -0.173254 0.090311 0.239260 0.033239 0.108200 -0.087694 0.071459 0.069653 0.048690 0.027218 -0.056147 -0.010237 0.032563 0.111250 0.028062 0.032642 0.110068 -0.040106 -0.110049 
actors -0.278273 0.002982 0.005138 -0.303086 -0.035202 -0.067456 -0.050843 0.030559 0.162895 0.058813 -0.105629 0.006755 -0.032589 -0.021059 0.138064 0.053953 -0.031228 -0.134083 -0.005796 0.161598 -0.196655 -0.144929 -0.045788 -0.207050 0.092996 -0.037115 0.120312 -0.115120 -0.117317 -0.016716 -0.007235 -0.372941 -0.197037 0.025821 0.167790 -0.039294 0.018219 0.284154 0.029213 0.038319 -0.072083 -0.005840 -0.326191 0.107331 -0.142868 0.265043 0.005933 -0.135762 0.226591 0.187917 
earnings -0.150819 -0.084701 -0.070243 0.053211 -0.050742 0.018921 0.018252 0.081337 0.023657 -0.225338 -0.057210 0.025165 -0.017304 -0.217516 0.156889 -0.043295 -0.058612 -0.070330 0.000545 0.068471 0.203076 0.179758 -0.065370 -0.205624 -0.086040 0.062109 -0.329798 0.288804 -0.328919 0.017780 0.146164 -0.101038 -0.049704 0.526218 -0.098356 -0.042155 -0.113338 0.121692 0.122867 -0.025751 0.123594 0.016649 0.028404 0.086378 0.079053 -0.083470 -0.043264 0.073419 0.065098 -0.075205 
digital -0.157888 0.001952 0.044472 -0.161445 -0.049397 -0.151893 0.041868 0.057335 0.192303 0.159753 0.120326 0.173896 -0.206409 0.181791 0.004640 -0.177016 -0.054722 0.038391 0.046938 0.040958 0.147958 0.156850 -0.041709 0.085698 0.066197 -0.083568 0.258266 0.028355 -0.247061 -0.038457 -0.109584 0.024684 0.179983 0.232276 0.119055 -0.125592 -0.003034 0.068581 0.026072 0.367469 -0.115013 0.182334 -0.210526 -0.137986 -0.023673 -0.314249 -0.176833 0.019167 -0.037085 -0.117394 
main -0.314111 0.026940 -0.033720 -0.178292 0.005686 0.004261 0.023936 0.002888 0.048223 -0.060937 0.158039 0.106637 -0.238050 0.037411 0.166887 -0.239585 -0.014158 -0.055966 -0.073605 -0.156465 0.123523 0.259610 -0.066068 0.041356 0.009751 -0.015732 -0.147645 -0.073750 0.030744 0.060362 0.138641 0.108373 0.036873 -0.259621 -0.055209 0.220011 0.060464 0.290260 0.053596 -0.173852 0.083296 -0.354097 0.250693 0.137781 -0.063793 0.113288 0.204541 -0.020007 -0.062854 0.204743 
party -0.086939 0.052288 0.015912 -0.067348 -0.052806 -0.263961 0.152473 0.118709 0.257328 0.085934 0.013433 0.293248 0.171289 -0.177471 -0.333398 0.242217 0.359404 -0.416604 -0.153917 -0.076632 -0.012208 0.136601 -0.090082 -0.031786 -0.021209 -0.050025 -0.075021 -0.048041 -0.013031 -0.030660 0.098977 0.117706 0.109320 0.026908 0.119185 -0.137079 0.042018 0.126138 -0.009208 -0.011322 -0.014018 0.112312 -0.032561 0.019953 -0.077960 0.008117 0.052228 -0.013781 -0.051586 0.040190 
guarantee -0.188294 -0.180444 -0.270327 -0.026343 -0.010773 0.070383 -0.076059 -0.100694 -0.106455 0.070423 0.155199 -0.177764 0.027508 0.119460 -0.188371 0.203575 0.065640 -0.070096 0.128326 0.006491 0.006441 0.139902 -0.155872 -0.102643 -0.023190 -0.016679 0.315698 0.016368 -0.060664 0.123228 0.022994 0.234919 -0.176020 0.078110 -0.265020 -0.248015 0.005914 -0.153576 0.146427 -0.106653 0.170045 -0.004269 0.159677 -0.075720 0.043434 0.239138 -0.141067 -0.218343 0.075456 0.085750 
fairly -0.328060 0.142758 0.135144 -0.102000 -0.303816 -0.089015 0.280231 0.098894 -0.077447 0.122077 0.018374 -0.092125 0.070853 -0.048376 0.060763 -0.045851 0.096963 0.066523 -0.041862 0.124983 -0.017929 -0.077965 -0.233730 0.058657 -0.029401 0.063793 0.075357 -0.043750 0.075517 -0.200132 0.058694 0.188623 -0.180973 0.111018 0.344214 -0.358245 -0.245331 0.249730 0.018251 -0.071253 0.027433 -0.061738 -0.050496 -0.060163 0.215541 0.019858 -0.056256 0.051673 -0.109101 0.077056 
inordinate -0.154811 -0.044029 0.214261 0.075284 0.046114 0.052290 -0.008173 0.082763 -0.055284 0.090637 0.087101 0.058784 0.109204 0.069745 -0.139121 -0.039891 0.118797 0.223443 0.116238 0.172966 0.186092 -0.079446 -0.117197 -0.240108 -0.139808 0.112652 -0.055559 -0.160181 -0.194004 0.173303 0.115849 -0.219661 0.159029 -0.097402 0.088091 0.201163 0.275632 -0.069994 0.183861 0.164213 -0.023786 0.200750 0.384580 -0.013229 -0.110666 0.167676 -0.076057 -0.003086 -0.028100 -0.028146 
enticing -0.134777 0.320288 -0.095908 0.155861 0.030989 0.039876 -0.223127 0.010928 0.127309 0.072790 0.203568 -0.086925 0.079704 -0.141593 0.152140 -0.053164 -0.014901 -0.061120 0.059361 -0.072663 0.125265 0.072419 -0.155217 -0.032306 0.072830 0.168972 0.125667 -0.121203 0.059384 -0.268757 -0.009825 -0.122075 0.047280 0.088142 -0.083062 0.081661 0.032261 -0.015695 0.005034 -0.217535 -0.149700 -0.103309 -0.130482 0.271211 -0.200994 0.276541 -0.153718 -0.212797 -0.324336 -0.051010 
after -0.172690 0.126882 0.130081 0.038725 -0.192291 0.067453 0.307366 -0.510655 -0.014374 -0.066616 0.026721 -0.127575 0.041062 -0.013346 0.176921 0.057074 0.095305 0.016571 -0.134880 -0.050790 -0.103798 0.152938 -0.097149 -0.080369 -0.122703 0.137050 0.039800 0.198589 0.004166 -0.229069 0.032745 -0.108218 0.194617 -0.157650 0.066427 0.113240 0.035959 -0.082173 0.038653 0.068460 0.103664 0.021107 -0.042239 -0.055428 -0.129263 -0.058074 -0.017055 0.348272 0.049544 0.119693 
most -0.440554 -0.031312 0.216739 0.212679 0.251979 -0.016210 -0.037407 0.072541 0.042908 0.050149 -0.056981 0.024538 -0.109040 0.131996 0.065803 0.218278 0.045695 0.071619 -0.120031 0.060668 -0.062678 0.056838 -0.011224 -0.012419 -0.020314 0.002596 -0.067675 -0.002136 -0.078496 0.097743 0.219151 0.091699 0.038540 -0.065430 0.057446 -0.010873 -0.218399 -0.008532 0.039660 -0.244524 -0.275412 -0.050596 -0.131802 -0.350799 0.064286 -0.225836 0.048071 -0.053754 0.391485 -0.109457 
chance -0.238970 0.344579 0.003236 0.099590 -0.336824 0.140877 -0.113904 -0.038197 -0.126510 0.057125 -0.193315 0.025995 -0.114799 0.123529 -0.103958 0.061670 -0.008001 -0.062236 -0.042456 0.052703 -0.032971 0.087874 -0.118813 0.031007 -0.226044 -0.413201 -0.158256 0.132759 -0.077418 -0.215632 0.078219 0.021538 -0.187970 -0.139367 0.149253 -0.040061 -0.091906 -0.026434 0.095334 0.114003 0.084290 -0.011091 0.154682 -0.094986 -0.027219 -0.102314 -0.119654 -0.031174 0.140823 0.182437 
end -0.400401 0.143996 -0.151037 0.019286 0.186853 -0.046531 0.093132 0.055461 -0.001655 -0.318189 0.082417 0.013963 0.047491 -0.239254 0.063616 -0.046692 -0.065384 0.046314 -0.036603 0.010744 0.050795 0.053303 -0.246709 -0.018368 0.060179 0.060970 0.067925 -0.044946 0.005734 -0.133099 -0.107889 -0.126955 -0.349558 -0.303201 -0.218312 0.109444 0.264621 0.085274 -0.103052 0.204247 -0.108649 0.015899 -0.021485 0.130504 0.057000 -0.374791 -0.122369 -0.041160 -0.089495 0.015575 
validate -0.176127 0.200865 -0.139460 0.080868 0.130722 -0.059918 0.081805 -0.015787 -0.038084 -0.063597 -0.020088 0.076090 0.011589 -0.044812 -0.018633 -0.099091 0.048730 0.014378 0.110393 -0.046892 0.031090 -0.122385 -0.056010 -0.061231 0.122834 0.242622 0.189391 -0.038463 0.085227 -0.112975 -0.181985 -0.298779 -0.154818 0.162798 -0.034675 0.059504 -0.103859 -0.038101 -0.003198 -0.025670 0.231726 -0.014283 0.281574 -0.282566 0.068342 -0.517456 0.128305 0.022851 -0.072497 0.102334 
rewaco -0.231072 0.018479 0.075746 0.013228 -0.037053 -0.572785 -0.313465 -0.149124 -0.363144 -0.142891 0.013214 -0.095228 0.021937 -0.047508 0.131415 -0.072785 0.108760 -0.122464 -0.052702 0.060577 0.084401 0.069700 0.045049 -0.047438 -0.002300 -0.007221 -0.049316 -0.140724 -0.029738 -0.017962 -0.037526 0.017347 0.109466 -0.091543 -0.035006 0.002678 0.019930 -0.014836 -0.025967 0.246692 0.309699 -0.037015 -0.267204 -0.214846 0.005837 0.063958 -0.064810 0.000543 -0.100206 -0.034173 
i'm -0.107909 0.286880 -0.040538 0.152240 -0.082986 0.089125 -0.343903 0.060667 0.179186 0.041645 0.182534 -0.161720 0.086463 -0.162473 0.106811 0.061544 -0.106906 -0.096261 0.024170 0.029691 0.122078 0.108465 0.059585 -0.064747 0.039827 0.001988 0.076834 -0.078950 0.120449 -0.052031 -0.073606 -0.090769 0.153327 0.062985 0.132982 -0.082145 0.108263 -0.081587 0.160635 -0.113974 -0.234528 -0.181451 -0.102481 -0.188600 -0.201834 -0.138789 -0.125324 -0.182406 0.032779 -0.395872 
single -0.174934 0.270535 -0.013433 0.097352 -0.199423 0.153524 -0.178918 -0.051946 -0.039184 0.122797 0.204569 -0.126751 0.056077 -0.075769 0.185730 0.072457 0.148917 -0.039359 -0.032164 -0.099251 -0.041930 -0.090177 -0.080060 0.175491 0.073991 0.146842 -0.144850 -0.087435 -0.079519 -0.138814 0.143835 0.027096 0.064365 0.183902 0.126630 -0.151280 -0.007144 -0.110050 0.219385 0.091059 -0.221040 -0.301815 -0.108689 0.037107 -0.335921 0.040915 -0.016790 -0.106531 -0.204107 -0.174758 
euro20 -0.287632 -0.197586 0.031919 0.250471 -0.038746 0.012522 -0.105557 0.012056 0.103344 0.038624 -0.132181 0.145215 0.000171 -0.040505 0.051938 -0.150773 0.092245 -0.028321 0.130513 -0.082389 -0.062289 -0.148741 -0.164230 -0.109784 -0.030951 0.070799 0.054940 0.086929 0.046142 0.219442 -0.012560 0.031251 0.008815 -0.187696 0.222208 0.162589 -0.271802 -0.192374 -0.135361 -0.072152 -0.048447 -0.056669 -0.094452 -0.368847 0.027949 0.015533 -0.000733 -0.174649 -0.423792 0.095623 
billion -0.289298 -0.147896 0.135257 0.221964 0.024230 0.028777 -0.151304 0.009367 0.129628 0.028530 -0.071901 0.148096 0.000115 -0.047261 -0.027103 -0.145777 0.071300 0.022766 0.095316 -0.104420 -0.136603 -0.179317 -0.035938 -0.127961 -0.006955 0.137233 0.034633 0.122633 0.011686 0.026129 0.014841 0.096103 -0.032806 -0.231319 -0.021540 0.046839 -0.354243 0.081016 0.260369 -0.047348 0.037242 0.052582 -0.106829 -0.403046 -0.020081 -0.011272 0.034924 0.092084 -0.440779 -0.052038 
